{"learner":{"attributes":{"scikit_learn":"{\"_estimator_type\": \"classifier\"}"},"feature_names":[],"feature_types":[],"gradient_booster":{"model":{"cats":{"enc":[],"feature_segments":[],"sorted_idx":[]},"gbtree_model_param":{"num_parallel_tree":"1","num_trees":"200"},"iteration_indptr":[0,1,2,3,4,5,6,7,8,9,10,11,12,13,14,15,16,17,18,19,20,21,22,23,24,25,26,27,28,29,30,31,32,33,34,35,36,37,38,39,40,41,42,43,44,45,46,47,48,49,50,51,52,53,54,55,56,57,58,59,60,61,62,63,64,65,66,67,68,69,70,71,72,73,74,75,76,77,78,79,80,81,82,83,84,85,86,87,88,89,90,91,92,93,94,95,96,97,98,99,100,101,102,103,104,105,106,107,108,109,110,111,112,113,114,115,116,117,118,119,120,121,122,123,124,125,126,127,128,129,130,131,132,133,134,135,136,137,138,139,140,141,142,143,144,145,146,147,148,149,150,151,152,153,154,155,156,157,158,159,160,161,162,163,164,165,166,167,168,169,170,171,172,173,174,175,176,177,178,179,180,181,182,183,184,185,186,187,188,189,190,191,192,193,194,195,196,197,198,199,200],"tree_info":[0,0,0,0,0,0,0,0,0,0,0,0,0,0,0,0,0,0,0,0,0,0,0,0,0,0,0,0,0,0,0,0,0,0,0,0,0,0,0,0,0,0,0,0,0,0,0,0,0,0,0,0,0,0,0,0,0,0,0,0,0,0,0,0,0,0,0,0,0,0,0,0,0,0,0,0,0,0,0,0,0,0,0,0,0,0,0,0,0,0,0,0,0,0,0,0,0,0,0,0,0,0,0,0,0,0,0,0,0,0,0,0,0,0,0,0,0,0,0,0,0,0,0,0,0,0,0,0,0,0,0,0,0,0,0,0,0,0,0,0,0,0,0,0,0,0,0,0,0,0,0,0,0,0,0,0,0,0,0,0,0,0,0,0,0,0,0,0,0,0,0,0,0,0,0,0,0,0,0,0,0,0,0,0,0,0,0,0,0,0,0,0,0,0,0,0,0,0,0,0],"trees":[{"base_weights":[7.357692E-8,7.551902E-1,-8.170879E-1,-4.630217E-1,1.5396967E0,-1.0368764E0,1.1910471E-1,-7.1213615E-1,3.55691E-1,1.745086E0,-1.0508144E0,-1.2042396E0,-5.894708E-1,4.7264487E-1,-1.1595839E0,-1.0792885E0,-2.4674535E-1,-5.8786396E-2,9.55471E-1,1.0566691E0,2.0247796E0,-1.8414551E-1,-1.1935538E0,-7.249664E-1,-1.2708771E0,-3.2564384E-1,-1.2176641E0,-4.211407E-2,1.2565495E0,-7.1086365E-1,-1.3583404E0,-1.2814317E0,-8.6877126E-1,-5.031404E-1,9.6091166E-2,2.465319E-1,-2.799168E-1,1.1585995E0,1.9342513E-3,8.7680215E-1,1.4488922E0,1.548224E0,2.2827685E0,-7.589388E-1,4.6271145E-1,-8.549445E-1,-1.2491186E0,-1.24968E0,-5.323218E-1,-1.4294182E0,-1.1807019E0,-6.4934844E-1,3.3234823E-1,-1.2997756E0,-9.0247977E-1,-7.55529E-1,8.827915E-2,2.3606214E-1,1.6391228E0,-1.0206145E0,-2.200917E-1,-1.4609885E0,-1.227645E0,-1.3258918E-1,-1.1458963E-1,-9.7222865E-2,-4.8511874E-2,-7.063612E-2,-2.5037711E-2,-2.972737E-3,1.2401032E-1,4.573659E-2,-2.7823905E-2,-3.4213908E-2,6.9401406E-2,7.790256E-2,1.5277247E-1,-1.2972347E-2,8.871754E-2,1.602612E-1,6.836411E-2,9.3548946E-2,1.7493077E-1,1.8625362E-1,9.4448045E-2,2.3296149E-1,1.3076408E-1,-9.130071E-2,-6.038463E-3,8.069518E-2,-5.6615602E-2,-1.21201575E-1,-6.4491495E-2,-1.3692479E-1,-1.1486353E-1,-1.4229517E-1,-1.0539764E-1,-3.7539035E-2,-1.4033605E-1,-1.4471447E-1,-7.848589E-2,-1.1169197E-1,-1.4535126E-1,-8.176753E-2,5.6669056E-2,7.110306E-3,1.3123058E-1,-1.0610815E-1,-1.3650732E-1,3.2146282E-2,-9.471672E-2,-1.14669636E-1,-4.1196186E-2,7.375843E-2,-2.2115402E-2,-9.168428E-2,6.343716E-2,7.088351E-2,1.9286485E-1,-1.08964086E-1,-1.3794191E-2,3.305156E-2,-5.897821E-2,-5.428157E-2,-1.4636606E-1,-5.0193038E-2,-1.2883726E-1],"categories":[],"categories_nodes":[],"categories_segments":[],"categories_sizes":[],"default_left":[0,0,0,0,0,0,0,0,0,0,0,0,0,0,0,0,0,0,0,0,0,0,0,0,0,0,0,0,0,0,0,0,0,0,0,0,0,0,0,0,0,0,0,0,0,0,0,0,0,0,0,0,0,0,0,0,0,0,0,0,0,0,0,0,0,0,0,0,0,0,0,0,0,0,0,0,0,0,0,0,0,0,0,0,0,0,0,0,0,0,0,0,0,0,0,0,0,0,0,0,0,0,0,0,0,0,0,0,0,0,0,0,0,0,0,0,0,0,0,0,0,0,0,0,0,0,0],"id":0,"left_children":[1,3,5,7,9,11,13,15,17,19,21,23,25,27,29,31,33,35,37,39,41,43,45,47,49,51,53,55,57,59,61,63,65,67,69,71,73,75,77,79,81,83,85,87,89,91,93,95,97,99,101,103,105,107,109,111,113,115,117,119,121,123,125,-1,-1,-1,-1,-1,-1,-1,-1,-1,-1,-1,-1,-1,-1,-1,-1,-1,-1,-1,-1,-1,-1,-1,-1,-1,-1,-1,-1,-1,-1,-1,-1,-1,-1,-1,-1,-1,-1,-1,-1,-1,-1,-1,-1,-1,-1,-1,-1,-1,-1,-1,-1,-1,-1,-1,-1,-1,-1,-1,-1,-1,-1,-1,-1],"loss_changes":[2.7799305E4,2.2375953E4,4.4526475E3,1.8709004E3,7.57925E3,1.3115332E3,1.860871E3,1.2013799E3,5.321491E2,2.5386484E3,1.292804E2,4.06375E2,7.9063086E2,1.3012148E3,7.855542E1,1.6616406E2,2.7277667E2,8.5588066E1,1.6942542E2,2.6783008E2,1.1499883E3,5.58298E1,1.5839233E1,1.5692712E2,1.5835938E2,7.164309E2,3.5351074E1,1.8121898E2,4.9861804E2,4.170192E1,6.4814453E0,1.0552002E1,7.6080444E1,9.101315E1,1.912414E2,5.9052063E1,4.4783504E1,9.984546E1,1.8135712E1,3.65901E2,1.8309595E2,6.241577E2,2.7492188E2,8.488796E0,2.5542088E1,8.955887E0,7.718994E0,1.2672241E1,1.5559097E2,4.5185547E1,1.2264746E2,4.6186926E2,2.83934E2,1.5966553E1,1.6436615E1,3.9983612E1,3.311394E2,1.6116046E2,2.4897803E2,1.0134842E1,2.2177252E1,4.0283203E-2,1.1587555E1,0E0,0E0,0E0,0E0,0E0,0E0,0E0,0E0,0E0,0E0,0E0,0E0,0E0,0E0,0E0,0E0,0E0,0E0,0E0,0E0,0E0,0E0,0E0,0E0,0E0,0E0,0E0,0E0,0E0,0E0,0E0,0E0,0E0,0E0,0E0,0E0,0E0,0E0,0E0,0E0,0E0,0E0,0E0,0E0,0E0,0E0,0E0,0E0,0E0,0E0,0E0,0E0,0E0,0E0,0E0,0E0,0E0,0E0,0E0,0E0,0E0,0E0,0E0,0E0],"parents":[2147483647,0,0,1,1,2,2,3,3,4,4,5,5,6,6,7,7,8,8,9,9,10,10,11,11,12,12,13,13,14,14,15,15,16,16,17,17,18,18,19,19,20,20,21,21,22,22,23,23,24,24,25,25,26,26,27,27,28,28,29,29,30,30,31,31,32,32,33,33,34,34,35,35,36,36,37,37,38,38,39,39,40,40,41,41,42,42,43,43,44,44,45,45,46,46,47,47,48,48,49,49,50,50,51,51,52,52,53,53,54,54,55,55,56,56,57,57,58,58,59,59,60,60,61,61,62,62],"right_children":[2,4,6,8,10,12,14,16,18,20,22,24,26,28,30,32,34,36,38,40,42,44,46,48,50,52,54,56,58,60,62,64,66,68,70,72,74,76,78,80,82,84,86,88,90,92,94,96,98,100,102,104,106,108,110,112,114,116,118,120,122,124,126,-1,-1,-1,-1,-1,-1,-1,-1,-1,-1,-1,-1,-1,-1,-1,-1,-1,-1,-1,-1,-1,-1,-1,-1,-1,-1,-1,-1,-1,-1,-1,-1,-1,-1,-1,-1,-1,-1,-1,-1,-1,-1,-1,-1,-1,-1,-1,-1,-1,-1,-1,-1,-1,-1,-1,-1,-1,-1,-1,-1,-1,-1,-1,-1],"split_conditions":[-8.846075E-3,-3.4026435E-1,5.461529E-1,5.566733E-1,9.4458544E-1,-1.16966635E-1,9.519876E-1,-5.959108E-1,-4.7693986E-1,-1.1924142E-1,1.0809717E0,-5.4491013E-1,9.0522486E-1,-2.1904062E-1,8.055457E-1,-7.676714E-1,1.1249928E0,-8.6148554E-1,-6.2053406E-1,4.289561E-1,-8.3188654E-4,5.029081E-1,1.2609446E0,-6.1093324E-1,-5.537469E-1,-1.3399899E-1,1.6650566E0,-5.57806E-1,-1.4839707E-1,-2.7417126E-1,2.9293117E-1,-6.9533515E-1,1.2464571E0,-4.5376515E-1,1.6244831E0,-2.6850054E-1,1.7524328E0,8.148949E-1,1.9317069E0,-7.711777E-1,1.0227954E0,-6.53694E-1,8.5814464E-1,1.5667398E0,-2.9108139E-2,-1.08467884E-1,-5.702337E-1,-2.691247E-1,8.359875E-1,4.748605E-1,7.068739E-1,1.6035287E0,7.7117497E-1,1.1368186E0,9.838478E-1,1.0655173E0,9.519795E-2,-4.7601503E-1,-2.7072194E-1,1.9251469E0,3.9764E-1,-8.4959126E-1,1.0303091E0,-1.3258918E-1,-1.1458963E-1,-9.7222865E-2,-4.8511874E-2,-7.063612E-2,-2.5037711E-2,-2.972737E-3,1.2401032E-1,4.573659E-2,-2.7823905E-2,-3.4213908E-2,6.9401406E-2,7.790256E-2,1.5277247E-1,-1.2972347E-2,8.871754E-2,1.602612E-1,6.836411E-2,9.3548946E-2,1.7493077E-1,1.8625362E-1,9.4448045E-2,2.3296149E-1,1.3076408E-1,-9.130071E-2,-6.038463E-3,8.069518E-2,-5.6615602E-2,-1.21201575E-1,-6.4491495E-2,-1.3692479E-1,-1.1486353E-1,-1.4229517E-1,-1.0539764E-1,-3.7539035E-2,-1.4033605E-1,-1.4471447E-1,-7.848589E-2,-1.1169197E-1,-1.4535126E-1,-8.176753E-2,5.6669056E-2,7.110306E-3,1.3123058E-1,-1.0610815E-1,-1.3650732E-1,3.2146282E-2,-9.471672E-2,-1.14669636E-1,-4.1196186E-2,7.375843E-2,-2.2115402E-2,-9.168428E-2,6.343716E-2,7.088351E-2,1.9286485E-1,-1.08964086E-1,-1.3794191E-2,3.305156E-2,-5.897821E-2,-5.428157E-2,-1.4636606E-1,-5.0193038E-2,-1.2883726E-1],"split_indices":[1,0,8,4,2,9,0,0,9,0,2,15,2,9,2,4,8,15,6,3,9,9,2,0,2,0,9,0,0,9,9,0,8,0,20,5,20,4,20,3,8,1,0,12,15,9,15,4,2,4,2,1,9,2,2,8,4,0,22,5,2,12,2,0,0,0,0,0,0,0,0,0,0,0,0,0,0,0,0,0,0,0,0,0,0,0,0,0,0,0,0,0,0,0,0,0,0,0,0,0,0,0,0,0,0,0,0,0,0,0,0,0,0,0,0,0,0,0,0,0,0,0,0,0,0,0,0],"split_type":[0,0,0,0,0,0,0,0,0,0,0,0,0,0,0,0,0,0,0,0,0,0,0,0,0,0,0,0,0,0,0,0,0,0,0,0,0,0,0,0,0,0,0,0,0,0,0,0,0,0,0,0,0,0,0,0,0,0,0,0,0,0,0,0,0,0,0,0,0,0,0,0,0,0,0,0,0,0,0,0,0,0,0,0,0,0,0,0,0,0,0,0,0,0,0,0,0,0,0,0,0,0,0,0,0,0,0,0,0,0,0,0,0,0,0,0,0,0,0,0,0,0,0,0,0,0,0],"sum_hessian":[4.5049457E4,2.3411527E4,2.163793E4,9.170943E3,1.4240583E4,1.7523787E4,4.1141416E3,7.0315444E3,2.1393987E3,1.3194761E4,1.0458231E3,1.2751924E4,4.771864E3,3.223514E3,8.9062775E2,3.9298892E3,3.101655E3,1.2656644E3,8.737342E2,3.8134365E3,9.381324E3,1.482127E2,8.976104E2,1.5580354E3,1.1193889E4,3.3615903E3,1.4102732E3,1.9463617E3,1.2771521E3,2.7480167E2,6.1582605E2,2.002223E3,1.9276663E3,1.7742728E3,1.3273822E3,5.3158356E2,7.340809E2,7.2011554E2,1.5361864E2,2.6166978E3,1.1967388E3,3.297395E3,6.083929E3,7.8386055E1,6.982666E1,1.2884145E2,7.68769E2,4.169327E2,1.1411027E3,4.0530996E3,7.140789E3,2.2531484E3,1.1084419E3,1.1163256E3,2.939477E2,3.000294E2,1.6463324E3,3.486828E2,9.284693E2,1.6780922E2,1.06992455E2,3.392224E2,2.7660367E2,1.5010479E3,5.011752E2,1.5170404E3,4.106258E2,9.825286E2,7.917442E2,1.1967388E3,1.3064342E2,3.793164E2,1.5226717E2,6.9060815E2,4.3472725E1,3.5656644E2,3.635491E2,1.3447263E2,1.9146019E1,5.484771E2,2.0682205E3,4.4328665E2,7.5345215E2,2.167104E3,1.1302909E3,5.803721E3,2.802076E2,6.3970226E1,1.4415826E1,5.2482616E1,1.734404E1,4.5950443E1,8.2891E1,3.4440308E2,4.2436588E2,2.1781412E2,1.9911859E2,9.681128E2,1.7298991E2,3.943404E3,1.0969543E2,5.791783E3,1.349006E3,1.9794731E3,2.7367545E2,8.759867E2,2.3245518E2,2.4349231E2,8.728332E2,1.0136127E1,2.8381158E2,1.3920282E2,1.6082655E2,5.3090784E2,1.1154246E3,8.919792E1,2.5948486E2,2.2119283E2,7.072764E2,1.5542062E2,1.23886E1,4.3022232E1,6.3970226E1,1.576731E0,3.3764566E2,2.2074234E1,2.5452942E2],"tree_param":{"num_deleted":"0","num_feature":"23","num_nodes":"127","size_leaf_vector":"1"}},{"base_weights":[-2.8007491E-3,6.634656E-1,-7.5872886E-1,-4.7722942E-1,1.2985289E0,-9.691962E-1,1.0512885E-1,-7.0968497E-1,2.7576005E-1,1.4593352E0,-9.829339E-1,-1.1349112E0,-5.4982054E-1,4.389254E-1,-1.02372E0,-1.0097805E0,-2.9350305E-1,-1.0392765E-1,7.6974416E-1,8.1305075E-1,1.7037075E0,-1.6834375E-1,-1.1217151E0,-7.0283806E-1,-1.2050856E0,-3.1056702E-1,-1.1474292E0,-2.5596345E-2,1.1267676E0,-5.537067E-1,-1.2804611E0,-1.2080439E0,-8.0635446E-1,-5.2386755E-1,1.2702589E-2,2.5179705E-1,-2.638228E-1,9.32009E-1,-9.202373E-2,1.0642124E0,5.7269436E-1,1.1255951E0,1.8460408E0,-7.02664E-1,4.104042E-1,-7.155512E-1,-1.1657847E0,-1.2214969E0,-5.306414E-1,-1.3556474E0,-1.1183783E0,-6.118119E-1,2.7839577E-1,-1.2277875E0,-8.388344E-1,-3.4692833E-1,2.3901924E-1,2.1019085E-1,1.4718211E0,-7.061317E-1,5.684492E-1,-1.3865877E0,-1.1460811E0,-1.1500075E-1,-1.3150947E-1,-9.057259E-2,-4.440412E-2,2.919216E-3,-5.8978695E-2,1.969931E-2,-6.405646E-2,4.6359833E-2,-1.7680047E-2,-3.0942643E-2,5.851949E-2,1.352989E-1,6.659219E-2,-2.2375928E-2,7.016458E-2,4.7811177E-2,1.3189429E-1,3.1987946E-2,8.027032E-2,4.115854E-2,1.466962E-1,2.1706708E-1,1.6988681E-1,-9.477227E-2,-2.628542E-2,7.099315E-2,-5.2217882E-2,-1.1645507E-1,-5.0103277E-2,-1.2519906E-1,-1.0179243E-1,-1.2539153E-1,-3.4493603E-2,-3.9477717E-2,-1.3408682E-1,-1.3736509E-1,-7.20403E-2,-1.0545581E-1,-1.3699786E-1,-7.561483E-2,5.737546E-2,8.038944E-2,-1.9127255E-2,-9.9241845E-2,-1.2925178E-1,2.8944094E-2,-8.817419E-2,-1.96465E-3,-5.9683453E-2,-5.234285E-2,3.9225932E-2,-8.530506E-2,5.5983733E-2,1.8248408E-1,9.682231E-2,1.0984594E-1,-7.531082E-2,1.1810626E-1,-1.7843163E-2,-4.0724777E-2,-1.3892068E-1,-5.9845913E-2,-1.2055103E-1],"categories":[],"categories_nodes":[],"categories_segments":[],"categories_sizes":[],"default_left":[0,0,0,0,0,0,0,0,0,0,0,0,0,0,0,0,0,0,0,0,0,0,0,0,0,0,0,0,0,0,0,0,0,0,0,0,0,0,0,0,0,0,0,0,0,0,0,0,0,0,0,0,0,0,0,0,0,0,0,0,0,0,0,0,0,0,0,0,0,0,0,0,0,0,0,0,0,0,0,0,0,0,0,0,0,0,0,0,0,0,0,0,0,0,0,0,0,0,0,0,0,0,0,0,0,0,0,0,0,0,0,0,0,0,0,0,0,0,0,0,0,0,0,0,0,0,0],"id":1,"left_children":[1,3,5,7,9,11,13,15,17,19,21,23,25,27,29,31,33,35,37,39,41,43,45,47,49,51,53,55,57,59,61,63,65,67,69,71,73,75,77,79,81,83,85,87,89,91,93,95,97,99,101,103,105,107,109,111,113,115,117,119,121,123,125,-1,-1,-1,-1,-1,-1,-1,-1,-1,-1,-1,-1,-1,-1,-1,-1,-1,-1,-1,-1,-1,-1,-1,-1,-1,-1,-1,-1,-1,-1,-1,-1,-1,-1,-1,-1,-1,-1,-1,-1,-1,-1,-1,-1,-1,-1,-1,-1,-1,-1,-1,-1,-1,-1,-1,-1,-1,-1,-1,-1,-1,-1,-1,-1],"loss_changes":[2.261486E4,1.728977E4,3.8246611E3,1.4943186E3,5.6261016E3,1.1748896E3,1.5536089E3,8.143616E2,3.7787814E2,2.2605898E3,1.1399817E2,3.6672852E2,6.8490015E2,1.01671204E3,1.12840454E2,1.5186597E2,1.9287617E2,6.4895546E1,1.2251135E2,2.3673242E2,8.5300195E2,4.6120293E1,1.4610352E1,1.5084479E2,1.3461719E2,6.0763666E2,3.2939087E1,1.6166115E2,4.0535767E2,5.756147E1,7.0787964E0,1.03984375E1,6.704797E1,5.6904236E1,1.415683E2,3.2213608E1,3.0645363E1,8.1640564E1,1.4756929E1,2.8623022E2,1.1669153E2,5.0042212E2,3.9463477E2,8.096394E0,2.0420841E1,7.800724E0,8.627075E0,1.15598755E1,1.398472E2,4.2538086E1,1.0489844E2,3.8811365E2,2.8628378E2,1.5242554E1,1.4108826E1,7.021063E1,1.22030655E2,1.31327E2,1.6387E2,2.580687E1,1.8749851E1,2.9309082E-1,8.194672E0,0E0,0E0,0E0,0E0,0E0,0E0,0E0,0E0,0E0,0E0,0E0,0E0,0E0,0E0,0E0,0E0,0E0,0E0,0E0,0E0,0E0,0E0,0E0,0E0,0E0,0E0,0E0,0E0,0E0,0E0,0E0,0E0,0E0,0E0,0E0,0E0,0E0,0E0,0E0,0E0,0E0,0E0,0E0,0E0,0E0,0E0,0E0,0E0,0E0,0E0,0E0,0E0,0E0,0E0,0E0,0E0,0E0,0E0,0E0,0E0,0E0,0E0,0E0,0E0],"parents":[2147483647,0,0,1,1,2,2,3,3,4,4,5,5,6,6,7,7,8,8,9,9,10,10,11,11,12,12,13,13,14,14,15,15,16,16,17,17,18,18,19,19,20,20,21,21,22,22,23,23,24,24,25,25,26,26,27,27,28,28,29,29,30,30,31,31,32,32,33,33,34,34,35,35,36,36,37,37,38,38,39,39,40,40,41,41,42,42,43,43,44,44,45,45,46,46,47,47,48,48,49,49,50,50,51,51,52,52,53,53,54,54,55,55,56,56,57,57,58,58,59,59,60,60,61,61,62,62],"right_children":[2,4,6,8,10,12,14,16,18,20,22,24,26,28,30,32,34,36,38,40,42,44,46,48,50,52,54,56,58,60,62,64,66,68,70,72,74,76,78,80,82,84,86,88,90,92,94,96,98,100,102,104,106,108,110,112,114,116,118,120,122,124,126,-1,-1,-1,-1,-1,-1,-1,-1,-1,-1,-1,-1,-1,-1,-1,-1,-1,-1,-1,-1,-1,-1,-1,-1,-1,-1,-1,-1,-1,-1,-1,-1,-1,-1,-1,-1,-1,-1,-1,-1,-1,-1,-1,-1,-1,-1,-1,-1,-1,-1,-1,-1,-1,-1,-1,-1,-1,-1,-1,-1,-1,-1,-1,-1],"split_conditions":[-8.846075E-3,-3.6890915E-1,5.461529E-1,5.566733E-1,9.4458544E-1,-1.3343018E-1,8.2242376E-1,-5.959108E-1,-5.067077E-1,-1.4839707E-1,1.0809717E0,-5.1952595E-1,9.0522486E-1,-2.1904062E-1,8.055457E-1,-7.676714E-1,1.1249928E0,-9.28369E-1,-4.266295E-1,-2.4582511E-1,-3.323276E-1,5.029081E-1,1.1985376E0,-6.428134E-1,-5.537469E-1,-1.4141561E-1,1.6650566E0,-6.283155E-1,-1.4839707E-1,4.216138E-1,2.9293117E-1,3.8591634E-2,1.2464571E0,-5.6660485E-1,1.7946619E-1,-4.8400688E-1,1.8442385E0,-9.753509E-1,1.8442385E0,-3.8599193E-1,-2.6377097E-1,-2.6452565E-1,-4.391419E-1,-8.257117E-2,-2.9108139E-2,-3.918101E-1,-2.1518822E-1,7.1262896E-1,8.359875E-1,4.748605E-1,6.459411E-1,1.7129585E0,5.180432E-1,1.1368186E0,9.838478E-1,3.3168808E-1,-4.7601503E-1,-4.7601503E-1,1.2715608E-1,-2.2891865E0,1.179992E0,2.9412843E-3,1.0303091E0,-1.1500075E-1,-1.3150947E-1,-9.057259E-2,-4.440412E-2,2.919216E-3,-5.8978695E-2,1.969931E-2,-6.405646E-2,4.6359833E-2,-1.7680047E-2,-3.0942643E-2,5.851949E-2,1.352989E-1,6.659219E-2,-2.2375928E-2,7.016458E-2,4.7811177E-2,1.3189429E-1,3.1987946E-2,8.027032E-2,4.115854E-2,1.466962E-1,2.1706708E-1,1.6988681E-1,-9.477227E-2,-2.628542E-2,7.099315E-2,-5.2217882E-2,-1.1645507E-1,-5.0103277E-2,-1.2519906E-1,-1.0179243E-1,-1.2539153E-1,-3.4493603E-2,-3.9477717E-2,-1.3408682E-1,-1.3736509E-1,-7.20403E-2,-1.0545581E-1,-1.3699786E-1,-7.561483E-2,5.737546E-2,8.038944E-2,-1.9127255E-2,-9.9241845E-2,-1.2925178E-1,2.8944094E-2,-8.817419E-2,-1.96465E-3,-5.9683453E-2,-5.234285E-2,3.9225932E-2,-8.530506E-2,5.5983733E-2,1.8248408E-1,9.682231E-2,1.0984594E-1,-7.531082E-2,1.1810626E-1,-1.7843163E-2,-4.0724777E-2,-1.3892068E-1,-5.9845913E-2,-1.2055103E-1],"split_indices":[1,0,8,4,2,9,0,0,9,0,2,15,2,9,2,4,8,15,22,5,9,9,2,0,2,0,9,9,0,9,9,9,8,3,9,5,20,15,20,19,0,6,4,9,15,6,15,4,2,4,2,1,1,2,2,4,0,0,4,20,0,1,2,0,0,0,0,0,0,0,0,0,0,0,0,0,0,0,0,0,0,0,0,0,0,0,0,0,0,0,0,0,0,0,0,0,0,0,0,0,0,0,0,0,0,0,0,0,0,0,0,0,0,0,0,0,0,0,0,0,0,0,0,0,0,0,0],"split_type":[0,0,0,0,0,0,0,0,0,0,0,0,0,0,0,0,0,0,0,0,0,0,0,0,0,0,0,0,0,0,0,0,0,0,0,0,0,0,0,0,0,0,0,0,0,0,0,0,0,0,0,0,0,0,0,0,0,0,0,0,0,0,0,0,0,0,0,0,0,0,0,0,0,0,0,0,0,0,0,0,0,0,0,0,0,0,0,0,0,0,0,0,0,0,0,0,0,0,0,0,0,0,0,0,0,0,0,0,0,0,0,0,0,0,0,0,0,0,0,0,0,0,0,0,0,0,0],"sum_hessian":[4.4899984E4,2.3865408E4,2.1034574E4,8.53506E3,1.5330349E4,1.6913664E4,4.1209097E3,6.521778E3,2.0132822E3,1.4321289E4,1.00905945E3,1.2121992E4,4.791673E3,3.180931E3,9.3997864E2,3.788549E3,2.7332285E3,1.1387794E3,8.7450287E2,3.9305625E3,1.0390727E4,1.472098E2,8.618497E2,1.6952344E3,1.0426758E4,3.4228499E3,1.3688232E3,1.8992618E3,1.2816691E3,3.3318207E2,6.067966E2,1.91612E3,1.8724291E3,1.5593717E3,1.1738568E3,3.5296042E2,7.85819E2,7.3586346E2,1.3863942E2,1.9204016E3,2.0101609E3,2.0545828E3,8.336144E3,7.643148E1,7.077831E1,8.60465E1,7.7580316E2,4.210207E2,1.2742137E3,3.8049927E3,6.6217646E3,2.264537E3,1.1583126E3,1.0836592E3,2.851641E2,8.575716E2,1.0416902E3,3.5097415E2,9.3069495E2,2.9366376E2,3.9518295E1,3.33833E2,2.7296356E2,1.2501223E3,6.659977E2,1.4682369E3,4.0419205E2,1.6612773E2,1.393244E3,9.161141E2,2.577427E2,2.3616995E2,1.1679046E2,7.4636475E2,3.9454254E1,2.83403E2,4.5246042E2,1.19519325E2,1.9120092E1,5.8265875E2,1.3377428E3,9.587446E2,1.0514163E3,6.652785E2,1.3893043E3,2.5960647E3,5.740079E3,4.8341255E1,2.8090227E1,5.375274E1,1.7025574E1,2.638742E1,5.965908E1,4.8536E2,2.9044315E2,4.0559006E2,1.5430663E1,1.0925029E3,1.8171085E2,3.698998E3,1.05994576E2,5.2860986E3,1.3356661E3,2.0190863E3,2.4545088E2,5.463289E2,6.119837E2,2.3726385E2,8.463953E2,1.0236785E1,2.7492734E2,3.717714E2,4.8580017E2,1.7392224E2,8.67768E2,8.649906E1,2.6447507E2,5.45605E2,3.8508997E2,6.8827095E0,2.8678107E2,2.1391245E1,1.812705E1,1.3077533E0,3.3252524E2,2.7806372E1,2.4515718E2],"tree_param":{"num_deleted":"0","num_feature":"23","num_nodes":"127","size_leaf_vector":"1"}},{"base_weights":[-4.5904294E-3,5.4764366E-1,-7.6512194E-1,-4.6061206E-1,1.0963503E0,-9.5349795E-1,-2.2352768E-2,-6.7507875E-1,2.1837735E-1,1.250803E0,-8.2291067E-1,-1.0733137E0,-4.7635013E-1,2.5226244E-1,-1.0884798E0,-9.6927977E-1,-2.8358933E-1,-7.2906494E-2,7.447397E-1,6.818282E-1,1.470644E0,6.105951E-2,-1.0537126E0,-7.2183657E-1,-1.141742E0,-1.7016268E-1,-1.0541471E0,-1.3878006E-1,9.0238565E-1,-7.203228E-1,-1.2536986E0,-1.1676308E0,-8.013072E-1,-4.989071E-1,8.683661E-3,2.8446978E-1,-2.2369143E-1,1.0563335E0,4.1156998E-1,4.857349E-1,9.024966E-1,1.1116378E0,1.6836057E0,-7.4323905E-1,4.1197073E-1,-6.903176E-1,-1.1148218E0,-1.1384863E0,-5.545022E-1,-1.152777E0,9.637656E-2,-4.1960606E-1,3.443884E-1,3.8117743E-1,-1.0718173E0,-3.368693E-1,2.5852904E-1,-5.00264E-1,1.0880835E0,-1.036242E0,6.2170926E-2,-1.31997E0,-1.0176945E0,-1.1818864E-1,-6.544302E-2,-1.0234739E-1,-6.4212225E-2,-7.171539E-2,-3.6239263E-2,1.69114E-2,-5.9626978E-2,5.0396044E-2,-7.338001E-3,-4.109472E-2,-5.578546E-3,1.4296882E-1,4.9732022E-2,1.4947215E-2,6.968041E-2,9.608832E-2,2.6154822E-2,6.5604255E-2,1.2733698E-1,6.3458405E-2,1.3965052E-1,1.9706638E-1,1.5915672E-1,-9.2535265E-2,6.321497E-2,1.0828642E-1,1.6463345E-2,-1.0826319E-1,-4.1402478E-2,-1.18206106E-1,-8.7287776E-2,-1.2819475E-1,-9.403285E-2,-3.9473474E-2,-1.2238916E-1,-1.3101067E-1,-1.0702183E-1,1.0432624E-1,-1.0002921E-1,-6.342013E-2,7.053915E-2,8.5413456E-2,2.7725261E-3,1.1247676E-1,-5.8747984E-2,-1.1190623E-1,-5.6118388E-2,-7.732673E-2,-1.8687405E-2,-2.623628E-2,4.209844E-2,-7.3306605E-2,7.318645E-2,7.430113E-2,1.5481938E-1,-1.1495628E-1,-5.515067E-2,1.2596592E-1,-1.8680407E-2,-1.3493499E-1,-9.071632E-2,-1.0599863E-1,-3.6368173E-2],"categories":[],"categories_nodes":[],"categories_segments":[],"categories_sizes":[],"default_left":[0,0,0,0,0,0,0,0,0,0,0,0,0,0,0,0,0,0,0,0,0,0,0,0,0,0,0,0,0,0,0,0,0,0,0,0,0,0,0,0,0,0,0,0,0,0,0,0,0,0,0,0,0,0,0,0,0,0,0,0,0,0,0,0,0,0,0,0,0,0,0,0,0,0,0,0,0,0,0,0,0,0,0,0,0,0,0,0,0,0,0,0,0,0,0,0,0,0,0,0,0,0,0,0,0,0,0,0,0,0,0,0,0,0,0,0,0,0,0,0,0,0,0,0,0,0,0],"id":2,"left_children":[1,3,5,7,9,11,13,15,17,19,21,23,25,27,29,31,33,35,37,39,41,43,45,47,49,51,53,55,57,59,61,63,65,67,69,71,73,75,77,79,81,83,85,87,89,91,93,95,97,99,101,103,105,107,109,111,113,115,117,119,121,123,125,-1,-1,-1,-1,-1,-1,-1,-1,-1,-1,-1,-1,-1,-1,-1,-1,-1,-1,-1,-1,-1,-1,-1,-1,-1,-1,-1,-1,-1,-1,-1,-1,-1,-1,-1,-1,-1,-1,-1,-1,-1,-1,-1,-1,-1,-1,-1,-1,-1,-1,-1,-1,-1,-1,-1,-1,-1,-1,-1,-1,-1,-1,-1,-1],"loss_changes":[1.8669383E4,1.4247742E4,2.6163848E3,1.3218641E3,4.9446953E3,8.5225195E2,1.1081346E3,7.9420874E2,3.342139E2,1.9297129E3,2.5360889E2,2.8590332E2,5.2979016E2,7.652843E2,4.6251953E1,1.3026636E2,1.8634715E2,7.5718636E1,8.017877E1,1.857876E2,8.492754E2,7.3191124E1,2.1115112E1,1.3500769E2,1.3642578E2,2.5161317E2,2.6719849E1,1.4806523E2,2.9501593E2,6.0008957E1,7.0046997E0,1.2420898E1,7.4863525E1,5.0538513E1,1.22100464E2,3.279261E1,3.103881E1,8.29014E1,2.8073101E1,2.4271252E2,1.8414441E2,5.6281396E2,1.8142773E2,2.03227E1,2.9763256E1,1.5213753E1,1.2665894E1,1.4614929E1,1.4817041E2,1.2704785E2,9.3526634E1,3.1911765E2,1.03321304E2,1.0279307E1,2.410144E1,8.2011566E1,5.3093346E1,3.864631E1,1.5741211E2,8.858139E0,2.1310188E1,3.7893066E0,2.9720001E0,0E0,0E0,0E0,0E0,0E0,0E0,0E0,0E0,0E0,0E0,0E0,0E0,0E0,0E0,0E0,0E0,0E0,0E0,0E0,0E0,0E0,0E0,0E0,0E0,0E0,0E0,0E0,0E0,0E0,0E0,0E0,0E0,0E0,0E0,0E0,0E0,0E0,0E0,0E0,0E0,0E0,0E0,0E0,0E0,0E0,0E0,0E0,0E0,0E0,0E0,0E0,0E0,0E0,0E0,0E0,0E0,0E0,0E0,0E0,0E0,0E0,0E0,0E0,0E0],"parents":[2147483647,0,0,1,1,2,2,3,3,4,4,5,5,6,6,7,7,8,8,9,9,10,10,11,11,12,12,13,13,14,14,15,15,16,16,17,17,18,18,19,19,20,20,21,21,22,22,23,23,24,24,25,25,26,26,27,27,28,28,29,29,30,30,31,31,32,32,33,33,34,34,35,35,36,36,37,37,38,38,39,39,40,40,41,41,42,42,43,43,44,44,45,45,46,46,47,47,48,48,49,49,50,50,51,51,52,52,53,53,54,54,55,55,56,56,57,57,58,58,59,59,60,60,61,61,62,62],"right_children":[2,4,6,8,10,12,14,16,18,20,22,24,26,28,30,32,34,36,38,40,42,44,46,48,50,52,54,56,58,60,62,64,66,68,70,72,74,76,78,80,82,84,86,88,90,92,94,96,98,100,102,104,106,108,110,112,114,116,118,120,122,124,126,-1,-1,-1,-1,-1,-1,-1,-1,-1,-1,-1,-1,-1,-1,-1,-1,-1,-1,-1,-1,-1,-1,-1,-1,-1,-1,-1,-1,-1,-1,-1,-1,-1,-1,-1,-1,-1,-1,-1,-1,-1,-1,-1,-1,-1,-1,-1,-1,-1,-1,-1,-1,-1,-1,-1,-1,-1,-1,-1,-1,-1,-1,-1,-1],"split_conditions":[1.1834974E-1,-3.6890915E-1,3.3254334E-1,5.566733E-1,8.703113E-1,1.01642564E-1,6.459411E-1,-6.0351664E-1,-4.401416E-1,-1.4839707E-1,1.0303091E0,-4.4449413E-1,9.0522486E-1,-2.1205474E-1,1.0303091E0,-8.6865914E-1,1.1249928E0,-9.28369E-1,-7.616481E-1,1.0227954E0,1.9102354E-2,-5.640748E-2,1.1985376E0,-5.269854E-1,3.3132784E0,-1.2677155E-1,-9.197921E-1,-4.9700758E-1,-3.3343425E-1,2.9293117E-1,1.2220981E0,4.169068E0,-8.129227E-1,-5.121143E-1,1.7946619E-1,-7.8702384E-1,-6.1093324E-1,-7.8672683E-1,-3.456909E-1,-6.178107E-1,4.289561E-1,-2.3876737E-1,-8.3414435E-1,2.3498955E0,2.3837036E-1,5.9237808E-2,1.8113151E0,-4.6696126E-2,6.4843583E-1,-5.7239527E-1,2.0690382E0,1.6035287E0,-6.5636504E-1,5.232425E-1,2.5718772E0,9.1557175E-1,9.1557175E-1,1.1174537E0,3.7547138E-1,1.9771627E0,5.7935905E-1,2.9249597E0,1.9298562E0,-1.1818864E-1,-6.544302E-2,-1.0234739E-1,-6.4212225E-2,-7.171539E-2,-3.6239263E-2,1.69114E-2,-5.9626978E-2,5.0396044E-2,-7.338001E-3,-4.109472E-2,-5.578546E-3,1.4296882E-1,4.9732022E-2,1.4947215E-2,6.968041E-2,9.608832E-2,2.6154822E-2,6.5604255E-2,1.2733698E-1,6.3458405E-2,1.3965052E-1,1.9706638E-1,1.5915672E-1,-9.2535265E-2,6.321497E-2,1.0828642E-1,1.6463345E-2,-1.0826319E-1,-4.1402478E-2,-1.18206106E-1,-8.7287776E-2,-1.2819475E-1,-9.403285E-2,-3.9473474E-2,-1.2238916E-1,-1.3101067E-1,-1.0702183E-1,1.0432624E-1,-1.0002921E-1,-6.342013E-2,7.053915E-2,8.5413456E-2,2.7725261E-3,1.1247676E-1,-5.8747984E-2,-1.1190623E-1,-5.6118388E-2,-7.732673E-2,-1.8687405E-2,-2.623628E-2,4.209844E-2,-7.3306605E-2,7.318645E-2,7.430113E-2,1.5481938E-1,-1.1495628E-1,-5.515067E-2,1.2596592E-1,-1.8680407E-2,-1.3493499E-1,-9.071632E-2,-1.0599863E-1,-3.6368173E-2],"split_indices":[1,0,8,4,2,9,2,0,9,0,2,15,2,9,2,4,8,15,3,8,9,9,2,0,5,0,4,9,0,9,9,15,0,0,9,3,0,1,2,3,3,6,4,12,4,9,9,4,0,2,18,1,7,0,1,8,8,8,9,12,0,1,21,0,0,0,0,0,0,0,0,0,0,0,0,0,0,0,0,0,0,0,0,0,0,0,0,0,0,0,0,0,0,0,0,0,0,0,0,0,0,0,0,0,0,0,0,0,0,0,0,0,0,0,0,0,0,0,0,0,0,0,0,0,0,0,0],"split_type":[0,0,0,0,0,0,0,0,0,0,0,0,0,0,0,0,0,0,0,0,0,0,0,0,0,0,0,0,0,0,0,0,0,0,0,0,0,0,0,0,0,0,0,0,0,0,0,0,0,0,0,0,0,0,0,0,0,0,0,0,0,0,0,0,0,0,0,0,0,0,0,0,0,0,0,0,0,0,0,0,0,0,0,0,0,0,0,0,0,0,0,0,0,0,0,0,0,0,0,0,0,0,0,0,0,0,0,0,0,0,0,0,0,0,0,0,0,0,0,0,0,0,0,0,0,0,0],"sum_hessian":[4.4449824E4,2.5751518E4,1.8698309E4,9.075439E3,1.6676078E4,1.4915307E4,3.7830017E3,6.89696E3,2.1784792E3,1.5434347E4,1.2417314E3,1.1920676E4,2.994631E3,3.008762E3,7.7423975E2,3.936921E3,2.9600393E3,1.4029575E3,7.7552167E2,4.302657E3,1.1131689E4,2.572398E2,9.8449164E2,1.9444873E3,9.976188E3,1.9582208E3,1.0364102E3,1.879218E3,1.1295441E3,2.4148929E2,5.327505E2,1.8024912E3,2.1344297E3,1.7039966E3,1.2560426E3,4.1603174E2,9.8692584E2,3.99615E2,3.7590665E2,2.2798809E3,2.0227765E3,4.1469956E3,6.9846934E3,7.78006E1,1.7943922E2,1.4349182E2,8.409998E2,5.5550903E2,1.3889783E3,9.888127E3,8.806133E1,1.318988E3,6.392328E2,1.2353802E1,1.0240564E3,1.254103E3,6.25115E2,1.318599E2,9.9768414E2,1.718025E2,6.9686775E1,4.123634E2,1.20387085E2,1.7525072E3,4.9983974E1,8.8869366E2,1.2457361E3,6.5407227E2,1.0499243E3,9.933358E2,2.627068E2,2.576136E2,1.5841814E2,4.6589392E2,5.210319E2,2.3866054E2,1.6095447E2,1.9669252E2,1.7921414E2,7.298108E2,1.5500701E3,1.2168917E3,8.0588477E2,1.5516873E3,2.5953086E3,1.6908151E3,5.2938784E3,6.899258E1,8.808019E0,4.7424335E1,1.320149E2,5.8090046E1,8.540178E1,6.550637E2,1.8593611E2,3.1905328E2,2.3645575E2,1.122624E3,2.663542E2,3.3979277E3,6.490199E3,4.728404E1,4.0777298E1,1.10806E3,2.1092809E2,2.4429054E2,3.9494223E2,6.8976536E0,5.456148E0,9.362416E2,8.7814735E1,3.197278E2,9.343752E2,1.4846533E2,4.7664963E2,1.1124581E2,2.0614077E1,5.7160693E2,4.2607718E2,1.381374E2,3.366511E1,1.1296228E1,5.8390545E1,3.8284714E2,2.9516273E1,1.1249203E2,7.8950586E0],"tree_param":{"num_deleted":"0","num_feature":"23","num_nodes":"127","size_leaf_vector":"1"}},{"base_weights":[-5.7572275E-3,5.799062E-1,-6.121313E-1,-3.6902928E-1,1.0697562E0,-8.273427E-1,1.4005631E-1,-6.0745174E-1,2.0489582E-1,1.1790712E0,-8.3358455E-1,-1.012383E0,-4.4353583E-1,3.9514017E-1,-9.231941E-1,-8.153348E-1,-1.01763286E-1,-4.171284E-2,6.4312017E-1,7.3475784E-1,1.3840076E0,-1.7088552E-1,-1.0001438E0,-6.381109E-1,-1.0928042E0,-2.5912845E-1,-1.0569274E0,5.4757153E-3,9.203747E-1,-5.0013965E-1,-1.1684197E0,-1.0473282E0,-6.186529E-1,-4.1245556E-1,1.750432E-1,-2.8138828E-1,1.16170794E-1,1.9020513E-1,8.6526084E-1,9.5313853E-1,5.2232367E-1,7.8334403E-1,1.4637616E0,-1.0580553E0,5.6726098E-2,-7.846592E-1,-1.0671242E0,-1.1538695E0,-4.7077388E-1,-1.2569501E0,-1.014425E0,-8.619855E-1,-3.1437475E-2,-1.1442183E0,-7.7360433E-1,-7.155611E-1,1.20380305E-1,-2.806593E-1,1.1066471E0,3.0677503E-1,-6.763865E-1,-1.2025619E0,-8.009172E-1,-9.029389E-2,-1.161178E-1,-8.1652254E-2,-4.2302873E-2,-4.6222858E-2,2.2102779E-2,5.4677567E-3,1.04648046E-1,-3.0826768E-2,1.3030808E-1,-4.3187395E-2,2.5038932E-2,6.722132E-3,8.343598E-2,1.16909705E-1,4.6139568E-2,4.3800853E-2,1.161253E-1,2.4915067E-2,6.934934E-2,1.1665304E-1,2.4600714E-2,1.4845389E-1,-6.3033253E-3,1.1486202E-2,-1.1321284E-1,-5.155176E-2,2.9478053E-2,-8.567657E-2,-1.8891638E-2,-1.1547842E-1,-8.278368E-2,-1.1817425E-1,-4.5952052E-2,-3.4101587E-2,-1.1276396E-1,-1.2765011E-1,-7.965519E-2,-9.5716E-2,-1.28276E-1,-9.5637664E-2,4.06353E-2,4.3769326E-2,-2.737458E-2,9.23077E-2,-1.1517631E-1,-4.9731504E-2,-9.2283405E-2,-1.0922944E-1,-3.8380228E-2,6.914518E-2,-1.1008525E-2,-6.622922E-2,4.591174E-2,1.4076716E-1,6.683523E-2,7.733898E-2,-2.0771584E-2,9.127046E-2,-7.145199E-2,-1.2248885E-1,-7.8138016E-2,9.716311E-3,-9.657582E-2],"categories":[],"categories_nodes":[],"categories_segments":[],"categories_sizes":[],"default_left":[0,0,0,0,0,0,0,0,0,0,0,0,0,0,0,0,0,0,0,0,0,0,0,0,0,0,0,0,0,0,0,0,0,0,0,0,0,0,0,0,0,0,0,0,0,0,0,0,0,0,0,0,0,0,0,0,0,0,0,0,0,0,0,0,0,0,0,0,0,0,0,0,0,0,0,0,0,0,0,0,0,0,0,0,0,0,0,0,0,0,0,0,0,0,0,0,0,0,0,0,0,0,0,0,0,0,0,0,0,0,0,0,0,0,0,0,0,0,0,0,0,0,0,0,0,0,0],"id":3,"left_children":[1,3,5,7,9,11,13,15,17,19,21,23,25,27,29,31,33,35,37,39,41,43,45,47,49,51,53,55,57,59,61,63,65,67,69,71,73,75,77,79,81,83,85,87,89,91,93,95,97,99,101,103,105,107,109,111,113,115,117,119,121,123,125,-1,-1,-1,-1,-1,-1,-1,-1,-1,-1,-1,-1,-1,-1,-1,-1,-1,-1,-1,-1,-1,-1,-1,-1,-1,-1,-1,-1,-1,-1,-1,-1,-1,-1,-1,-1,-1,-1,-1,-1,-1,-1,-1,-1,-1,-1,-1,-1,-1,-1,-1,-1,-1,-1,-1,-1,-1,-1,-1,-1,-1,-1,-1,-1],"loss_changes":[1.5555802E4,1.0357877E4,3.4839146E3,1.0382892E3,3.058711E3,1.187957E3,1.2990906E3,5.634248E2,2.4075108E2,1.2645098E3,8.799817E1,3.3911035E2,6.1563306E2,7.905494E2,9.556775E1,1.7267944E2,1.3447359E2,5.4005314E1,8.0543396E1,2.0312183E2,4.544414E2,3.2701073E1,8.37323E0,1.7199536E2,1.18262695E2,5.7480457E2,3.023352E1,1.838921E2,3.6836133E2,4.8823593E1,6.389282E0,2.757837E1,7.9324036E1,2.3328003E1,8.670447E1,2.4538277E1,6.3410583E1,2.0957584E1,6.546872E1,2.3138586E2,1.0396326E2,2.2967706E2,2.663828E2,3.0019073E0,1.7805424E1,6.5007477E0,9.197327E0,8.921631E0,1.284136E2,2.5973633E1,9.548291E1,1.3782886E2,3.4577307E2,1.603357E1,1.188739E1,3.7712616E1,2.5203932E2,6.289221E1,1.8699817E2,1.5037531E1,1.7672607E1,4.065918E0,7.911186E0,0E0,0E0,0E0,0E0,0E0,0E0,0E0,0E0,0E0,0E0,0E0,0E0,0E0,0E0,0E0,0E0,0E0,0E0,0E0,0E0,0E0,0E0,0E0,0E0,0E0,0E0,0E0,0E0,0E0,0E0,0E0,0E0,0E0,0E0,0E0,0E0,0E0,0E0,0E0,0E0,0E0,0E0,0E0,0E0,0E0,0E0,0E0,0E0,0E0,0E0,0E0,0E0,0E0,0E0,0E0,0E0,0E0,0E0,0E0,0E0,0E0,0E0,0E0,0E0],"parents":[2147483647,0,0,1,1,2,2,3,3,4,4,5,5,6,6,7,7,8,8,9,9,10,10,11,11,12,12,13,13,14,14,15,15,16,16,17,17,18,18,19,19,20,20,21,21,22,22,23,23,24,24,25,25,26,26,27,27,28,28,29,29,30,30,31,31,32,32,33,33,34,34,35,35,36,36,37,37,38,38,39,39,40,40,41,41,42,42,43,43,44,44,45,45,46,46,47,47,48,48,49,49,50,50,51,51,52,52,53,53,54,54,55,55,56,56,57,57,58,58,59,59,60,60,61,61,62,62],"right_children":[2,4,6,8,10,12,14,16,18,20,22,24,26,28,30,32,34,36,38,40,42,44,46,48,50,52,54,56,58,60,62,64,66,68,70,72,74,76,78,80,82,84,86,88,90,92,94,96,98,100,102,104,106,108,110,112,114,116,118,120,122,124,126,-1,-1,-1,-1,-1,-1,-1,-1,-1,-1,-1,-1,-1,-1,-1,-1,-1,-1,-1,-1,-1,-1,-1,-1,-1,-1,-1,-1,-1,-1,-1,-1,-1,-1,-1,-1,-1,-1,-1,-1,-1,-1,-1,-1,-1,-1,-1,-1,-1,-1,-1,-1,-1,-1,-1,-1,-1,-1,-1,-1,-1,-1,-1,-1],"split_conditions":[-1.4326732E-1,-3.6215475E-1,5.461529E-1,4.4801566E-1,9.4458544E-1,-1.9701506E-1,8.2242376E-1,-5.121143E-1,-4.1931742E-1,-1.0493793E-1,1.1368186E0,-5.1952595E-1,9.838478E-1,-2.1904062E-1,8.055457E-1,-9.364103E-1,1.03201E0,7.215772E-1,6.691659E-1,-2.4582511E-1,-4.9700758E-1,-3.267656E-1,-1.0623413E0,-6.9533515E-1,-6.24139E-1,-2.3222816E-1,1.5275192E0,-6.192391E-1,-3.3343425E-1,-4.7630423E-1,2.2684233E0,-2.4720663E-1,-6.9533515E-1,1.6649643E0,1.5088223E0,2.4731436E0,-6.6727E-1,2.8935986E-2,-7.616481E-1,-3.9899358E-1,-2.6377097E-1,-8.288043E-1,1.179992E0,-1.5789177E0,-3.4206903E-1,1.6093489E0,1.4663371E0,7.1262896E-1,6.107819E-1,4.917825E-2,6.857194E-1,1.7741054E0,3.4284794E-1,-8.3414435E-1,-5.247248E-1,1.0805956E0,-7.354095E-2,-7.037552E-1,1.2715608E-1,1.179992E0,-2.2891865E0,2.9249597E0,7.478515E-1,-9.029389E-2,-1.161178E-1,-8.1652254E-2,-4.2302873E-2,-4.6222858E-2,2.2102779E-2,5.4677567E-3,1.04648046E-1,-3.0826768E-2,1.3030808E-1,-4.3187395E-2,2.5038932E-2,6.722132E-3,8.343598E-2,1.16909705E-1,4.6139568E-2,4.3800853E-2,1.161253E-1,2.4915067E-2,6.934934E-2,1.1665304E-1,2.4600714E-2,1.4845389E-1,-6.3033253E-3,1.1486202E-2,-1.1321284E-1,-5.155176E-2,2.9478053E-2,-8.567657E-2,-1.8891638E-2,-1.1547842E-1,-8.278368E-2,-1.1817425E-1,-4.5952052E-2,-3.4101587E-2,-1.1276396E-1,-1.2765011E-1,-7.965519E-2,-9.5716E-2,-1.28276E-1,-9.5637664E-2,4.06353E-2,4.3769326E-2,-2.737458E-2,9.23077E-2,-1.1517631E-1,-4.9731504E-2,-9.2283405E-2,-1.0922944E-1,-3.8380228E-2,6.914518E-2,-1.1008525E-2,-6.622922E-2,4.591174E-2,1.4076716E-1,6.683523E-2,7.733898E-2,-2.0771584E-2,9.127046E-2,-7.145199E-2,-1.2248885E-1,-7.8138016E-2,9.716311E-3,-9.657582E-2],"split_indices":[1,0,8,4,2,9,0,0,9,0,2,15,2,9,2,4,8,4,4,5,9,9,1,0,2,2,9,0,0,7,9,9,0,20,20,20,19,9,3,19,0,1,0,11,6,21,9,4,2,4,2,1,1,4,3,8,4,4,4,0,20,1,6,0,0,0,0,0,0,0,0,0,0,0,0,0,0,0,0,0,0,0,0,0,0,0,0,0,0,0,0,0,0,0,0,0,0,0,0,0,0,0,0,0,0,0,0,0,0,0,0,0,0,0,0,0,0,0,0,0,0,0,0,0,0,0,0],"split_type":[0,0,0,0,0,0,0,0,0,0,0,0,0,0,0,0,0,0,0,0,0,0,0,0,0,0,0,0,0,0,0,0,0,0,0,0,0,0,0,0,0,0,0,0,0,0,0,0,0,0,0,0,0,0,0,0,0,0,0,0,0,0,0,0,0,0,0,0,0,0,0,0,0,0,0,0,0,0,0,0,0,0,0,0,0,0,0,0,0,0,0,0,0,0,0,0,0,0,0,0,0,0,0,0,0,0,0,0,0,0,0,0,0,0,0,0,0,0,0,0,0,0,0,0,0,0,0],"sum_hessian":[4.380098E4,2.2281014E4,2.1519967E4,7.5858936E3,1.469512E4,1.6732473E4,4.787494E3,5.359407E3,2.2264863E3,1.3897332E4,7.9778845E2,1.1288461E4,5.4440117E3,3.861671E3,9.258231E2,3.79763E3,1.5617772E3,1.4253065E3,8.011797E2,4.3881553E3,9.509177E3,1.6064528E2,6.371432E2,1.9981614E3,9.290299E3,4.1867485E3,1.2572632E3,2.2175273E3,1.6441434E3,3.4084647E2,5.849766E2,1.7404181E3,2.057212E3,7.356176E2,8.261596E2,5.657249E2,8.595816E2,2.6425516E2,5.3692456E2,2.1620735E3,2.226082E3,1.1158718E3,8.393305E3,3.2054974E1,1.285903E2,1.5409985E2,4.830433E2,4.880426E2,1.5101188E3,2.997578E3,6.292721E3,1.1470144E3,3.039734E3,9.5881647E2,2.9844675E2,3.0409238E2,1.913435E3,2.2068973E2,1.4234537E3,6.0969204E1,2.7987726E2,5.331711E2,5.1805515E1,7.712347E2,9.691834E2,1.0211582E3,1.0360536E3,6.822809E2,5.333673E1,7.268303E2,9.932932E1,5.570799E2,8.645023E0,1.6866528E2,6.909164E2,2.2281839E2,4.1436752E1,3.0532632E2,2.3159824E2,6.230325E2,1.5390409E3,8.584775E2,1.3676045E3,6.5068414E2,4.6518774E2,8.2806455E3,1.1265918E2,1.8714038E0,3.018357E1,3.743564E1,9.115466E1,1.3707114E2,1.702873E1,3.5073135E2,1.3231194E2,4.685326E2,1.9510012E1,1.2622847E3,2.4783408E2,2.8737698E3,1.2380813E2,5.1897515E3,1.1029697E3,1.067794E3,7.922041E1,1.0350254E3,2.0047085E3,3.0452921E0,9.557712E2,1.0618481E2,1.9226195E2,1.41321E2,1.627714E2,5.4959393E2,1.3638411E3,1.4565472E2,7.5035E1,8.42563E2,5.8089075E2,3.170831E1,2.9260897E1,6.0213604E0,2.738559E2,5.0451855E2,2.8652563E1,8.097822E0,4.370769E1],"tree_param":{"num_deleted":"0","num_feature":"23","num_nodes":"127","size_leaf_vector":"1"}},{"base_weights":[-6.53334E-3,4.391405E-1,-6.833043E-1,-3.9702362E-1,8.7231493E-1,-8.53573E-1,-4.271774E-2,-6.126014E-1,1.1396066E-1,9.9679E-1,-6.888324E-1,-9.702958E-1,-4.089591E-1,1.8888696E-1,-1.0020063E0,-8.9094746E-1,-2.540932E-1,-1.812744E-1,4.0820765E-1,5.595106E-1,1.192485E0,1.7060986E-2,-9.498778E-1,-1.1958795E0,-8.68625E-1,-1.4183697E-1,-9.4344485E-1,-2.8941306E-1,5.5155045E-1,-5.9709024E-1,-1.1274416E0,-1.0738595E0,-7.394337E-1,-4.8138776E-1,-1.4245973E-3,-3.5483527E-1,-2.5947701E-2,1.6652682E-1,7.3883766E-1,5.0347406E-1,1.2233257E0,9.5083874E-1,1.4384685E0,-3.9660048E-1,5.70116E-1,-6.088496E-1,-1.0098505E0,-1.2146403E0,-5.176259E-1,-7.9940504E-1,-1.2466695E0,-2.7730063E-1,6.9554627E-1,-8.37772E-1,-1.1980304E0,-2.0707857E-2,-5.19251E-1,-2.818231E-1,6.9816315E-1,-9.1132957E-1,2.5923887E-1,-9.9274796E-1,-1.2593527E0,-1.089733E-1,-5.3478915E-2,-8.8819295E-2,-4.423613E-2,6.2334915E-3,-5.2922666E-2,2.4069173E-2,-3.565789E-2,-3.993511E-2,4.9485475E-2,2.0825764E-2,-1.8857347E-2,-7.618274E-3,3.9072674E-2,9.048262E-2,-1.59436E-2,1.12550154E-1,4.3899007E-2,1.357002E-1,4.7603417E-2,1.1801537E-1,6.0524084E-2,1.4503582E-1,-3.1534623E-2,-6.5798186E-2,2.5041243E-2,8.6667545E-2,-2.3937711E-2,-8.138852E-2,-1.1952954E-2,-1.0701158E-1,-7.3195495E-2,-1.22665025E-1,-3.605605E-2,-7.141663E-2,1.0771239E-1,-1.0100738E-1,-6.4665E-2,-1.2619466E-1,-8.710115E-2,-5.0497063E-2,1.5759693E-2,-7.756751E-2,9.781253E-2,-8.973238E-2,-2.7687801E-2,-7.993665E-3,-1.2046323E-1,-5.4337885E-2,5.262307E-2,-3.6786173E-2,-8.858698E-2,-6.1821938E-2,2.9506821E-2,1.1540934E-1,3.844036E-2,-1.0413239E-1,-3.620035E-2,6.128592E-2,-5.039667E-2,-1.0080937E-1,3.457662E-2,-1.9641394E-2,-1.2629491E-1],"categories":[],"categories_nodes":[],"categories_segments":[],"categories_sizes":[],"default_left":[0,0,0,0,0,0,0,0,0,0,0,0,0,0,0,0,0,0,0,0,0,0,0,0,0,0,0,0,0,0,0,0,0,0,0,0,0,0,0,0,0,0,0,0,0,0,0,0,0,0,0,0,0,0,0,0,0,0,0,0,0,0,0,0,0,0,0,0,0,0,0,0,0,0,0,0,0,0,0,0,0,0,0,0,0,0,0,0,0,0,0,0,0,0,0,0,0,0,0,0,0,0,0,0,0,0,0,0,0,0,0,0,0,0,0,0,0,0,0,0,0,0,0,0,0,0,0],"id":4,"left_children":[1,3,5,7,9,11,13,15,17,19,21,23,25,27,29,31,33,35,37,39,41,43,45,47,49,51,53,55,57,59,61,63,65,67,69,71,73,75,77,79,81,83,85,87,89,91,93,95,97,99,101,103,105,107,109,111,113,115,117,119,121,123,125,-1,-1,-1,-1,-1,-1,-1,-1,-1,-1,-1,-1,-1,-1,-1,-1,-1,-1,-1,-1,-1,-1,-1,-1,-1,-1,-1,-1,-1,-1,-1,-1,-1,-1,-1,-1,-1,-1,-1,-1,-1,-1,-1,-1,-1,-1,-1,-1,-1,-1,-1,-1,-1,-1,-1,-1,-1,-1,-1,-1,-1,-1,-1,-1],"loss_changes":[1.2976891E4,9.396346E3,1.8632368E3,9.75327E2,3.3214414E3,6.9998535E2,7.974115E2,6.2112573E2,2.28349E2,1.3537246E3,2.3265985E2,2.4411035E2,4.007717E2,5.016815E2,3.477881E1,9.633667E1,1.5637242E2,3.5369904E1,1.0506387E2,1.8147375E2,6.4850684E2,7.842786E1,1.8235962E1,4.159326E1,1.9190576E2,2.1270813E2,2.4164978E1,7.703317E1,2.0115738E2,4.5231857E1,8.198364E0,1.298584E1,8.4462524E1,3.7316956E1,1.11049706E2,2.3638138E1,2.6458225E1,4.1481853E1,8.2985535E1,1.8063806E2,3.7350403E1,4.366006E2,1.1339453E2,3.3336456E1,3.5419434E1,1.3985142E1,1.2318665E1,3.2668945E1,2.9308163E1,1.9994775E2,5.437744E0,1.5981757E2,1.0932966E2,2.1945618E1,1.9121704E0,1.6499304E2,3.699028E1,4.8073204E1,1.9968256E2,8.373947E0,1.2633641E1,5.8502197E0,7.647705E-1,0E0,0E0,0E0,0E0,0E0,0E0,0E0,0E0,0E0,0E0,0E0,0E0,0E0,0E0,0E0,0E0,0E0,0E0,0E0,0E0,0E0,0E0,0E0,0E0,0E0,0E0,0E0,0E0,0E0,0E0,0E0,0E0,0E0,0E0,0E0,0E0,0E0,0E0,0E0,0E0,0E0,0E0,0E0,0E0,0E0,0E0,0E0,0E0,0E0,0E0,0E0,0E0,0E0,0E0,0E0,0E0,0E0,0E0,0E0,0E0,0E0,0E0,0E0,0E0],"parents":[2147483647,0,0,1,1,2,2,3,3,4,4,5,5,6,6,7,7,8,8,9,9,10,10,11,11,12,12,13,13,14,14,15,15,16,16,17,17,18,18,19,19,20,20,21,21,22,22,23,23,24,24,25,25,26,26,27,27,28,28,29,29,30,30,31,31,32,32,33,33,34,34,35,35,36,36,37,37,38,38,39,39,40,40,41,41,42,42,43,43,44,44,45,45,46,46,47,47,48,48,49,49,50,50,51,51,52,52,53,53,54,54,55,55,56,56,57,57,58,58,59,59,60,60,61,61,62,62],"right_children":[2,4,6,8,10,12,14,16,18,20,22,24,26,28,30,32,34,36,38,40,42,44,46,48,50,52,54,56,58,60,62,64,66,68,70,72,74,76,78,80,82,84,86,88,90,92,94,96,98,100,102,104,106,108,110,112,114,116,118,120,122,124,126,-1,-1,-1,-1,-1,-1,-1,-1,-1,-1,-1,-1,-1,-1,-1,-1,-1,-1,-1,-1,-1,-1,-1,-1,-1,-1,-1,-1,-1,-1,-1,-1,-1,-1,-1,-1,-1,-1,-1,-1,-1,-1,-1,-1,-1,-1,-1,-1,-1,-1,-1,-1,-1,-1,-1,-1,-1,-1,-1,-1,-1,-1,-1,-1],"split_conditions":[1.4518298E-1,-3.6890915E-1,3.3254334E-1,4.4801566E-1,8.359875E-1,1.01642564E-1,6.459411E-1,-6.0351664E-1,-5.569883E-1,-1.2677155E-1,1.0303091E0,-5.537469E-1,9.0522486E-1,-4.7693986E-1,9.0522486E-1,-9.197921E-1,1.0805956E0,7.6887524E-1,8.07225E-1,1.7083371E0,2.9293117E-1,7.216063E-1,1.1985376E0,4.748605E-1,8.703113E-1,1.4663371E0,9.925821E-1,3.6108956E-1,-3.1184658E-1,3.334226E-1,1.0884565E0,4.169068E0,1.0655173E0,-6.0204303E-1,-1.8953973E-1,1.7524328E0,-8.6148554E-1,-3.4411907E-1,-5.887043E-1,-1.6284747E0,1.358993E0,-6.8775266E-1,1.4197457E0,9.191685E-1,-1.6887267E-1,1.064582E0,2.1398296E0,2.1602263E0,-5.870676E-1,-5.996155E-1,2.9249597E0,-1.4141561E-1,-3.4735933E-1,2.5718772E0,-2.598579E0,1.0487636E0,3.4279086E-2,1.0403868E0,-1.5024045E-1,1.9771627E0,8.238912E-1,1.6966144E0,-1.7409221E0,-1.089733E-1,-5.3478915E-2,-8.8819295E-2,-4.423613E-2,6.2334915E-3,-5.2922666E-2,2.4069173E-2,-3.565789E-2,-3.993511E-2,4.9485475E-2,2.0825764E-2,-1.8857347E-2,-7.618274E-3,3.9072674E-2,9.048262E-2,-1.59436E-2,1.12550154E-1,4.3899007E-2,1.357002E-1,4.7603417E-2,1.1801537E-1,6.0524084E-2,1.4503582E-1,-3.1534623E-2,-6.5798186E-2,2.5041243E-2,8.6667545E-2,-2.3937711E-2,-8.138852E-2,-1.1952954E-2,-1.0701158E-1,-7.3195495E-2,-1.22665025E-1,-3.605605E-2,-7.141663E-2,1.0771239E-1,-1.0100738E-1,-6.4665E-2,-1.2619466E-1,-8.710115E-2,-5.0497063E-2,1.5759693E-2,-7.756751E-2,9.781253E-2,-8.973238E-2,-2.7687801E-2,-7.993665E-3,-1.2046323E-1,-5.4337885E-2,5.262307E-2,-3.6786173E-2,-8.858698E-2,-6.1821938E-2,2.9506821E-2,1.1540934E-1,3.844036E-2,-1.0413239E-1,-3.620035E-2,6.128592E-2,-5.039667E-2,-1.0080937E-1,3.457662E-2,-1.9641394E-2,-1.2629491E-1],"split_indices":[1,0,8,4,2,9,2,0,9,0,2,2,2,9,2,4,8,4,4,20,9,9,2,4,2,9,4,4,0,9,4,15,8,3,9,20,15,9,6,20,13,1,0,12,15,9,9,1,9,9,1,0,0,1,20,8,2,8,4,12,1,16,14,0,0,0,0,0,0,0,0,0,0,0,0,0,0,0,0,0,0,0,0,0,0,0,0,0,0,0,0,0,0,0,0,0,0,0,0,0,0,0,0,0,0,0,0,0,0,0,0,0,0,0,0,0,0,0,0,0,0,0,0,0,0,0,0],"split_type":[0,0,0,0,0,0,0,0,0,0,0,0,0,0,0,0,0,0,0,0,0,0,0,0,0,0,0,0,0,0,0,0,0,0,0,0,0,0,0,0,0,0,0,0,0,0,0,0,0,0,0,0,0,0,0,0,0,0,0,0,0,0,0,0,0,0,0,0,0,0,0,0,0,0,0,0,0,0,0,0,0,0,0,0,0,0,0,0,0,0,0,0,0,0,0,0,0,0,0,0,0,0,0,0,0,0,0,0,0,0,0,0,0,0,0,0,0,0,0,0,0,0,0,0,0,0,0],"sum_hessian":[4.30221E4,2.5940115E4,1.7081986E4,8.852352E3,1.7087764E4,1.3494736E4,3.5872507E3,6.2256357E3,2.6267156E3,1.582625E4,1.2615135E3,1.0687743E4,2.8069932E3,2.8902498E3,6.970009E2,3.5037986E3,2.721837E3,1.311348E3,1.3153676E3,4.8941533E3,1.0932097E4,3.408244E2,9.2068915E2,3.317103E3,7.37064E3,1.8724543E3,9.3453876E2,1.2465004E3,1.6437493E3,1.6621257E2,5.307883E2,1.5846604E3,1.9191382E3,1.432389E3,1.2894479E3,6.187156E2,6.926325E2,7.607704E2,5.5459717E2,4.5147915E3,3.7936185E2,5.5171196E3,5.414977E3,1.9514624E2,1.4567816E2,1.3936386E2,7.8132526E2,3.2270503E3,9.005279E1,6.2325713E3,1.1380692E3,1.612301E3,2.6015338E2,6.634472E2,2.7109152E2,5.751631E2,6.7133734E2,2.4577821E2,1.3979711E3,1.21545784E2,4.4666782E1,2.668426E2,2.6394574E2,1.5383407E3,4.6319675E1,1.2774595E3,6.416787E2,1.1581104E2,1.316578E3,7.6693445E2,5.225134E2,5.8841797E2,3.0297598E1,2.8373343E2,4.0889905E2,3.6562262E2,3.9514777E2,4.680928E2,8.650437E1,4.225285E2,4.0922627E3,3.2110614E2,5.8255688E1,3.3150596E3,2.2020603E3,5.3786855E3,3.629116E1,1.3898279E2,5.6163452E1,1.0656662E2,3.9111538E1,9.774381E1,4.1620052E1,6.397389E2,1.4158635E2,3.1818713E3,4.5179012E1,8.066379E1,9.388999E0,2.617329E3,3.615242E3,1.0913286E3,4.674059E1,1.0581799E3,5.541211E2,4.1635754E1,2.1851761E2,5.992258E2,6.4221375E1,1.6682467E0,2.6942328E2,2.941096E2,2.810535E2,4.7655505E2,1.9478227E2,1.5520412E2,9.0574104E1,5.6878296E2,8.291881E2,9.7562614E1,2.3983168E1,3.0658567E1,1.4008214E1,2.64062E2,2.7805643E0,1.0775671E0,2.6286816E2],"tree_param":{"num_deleted":"0","num_feature":"23","num_nodes":"127","size_leaf_vector":"1"}},{"base_weights":[-7.0546125E-3,3.893823E-1,-6.5523726E-1,-3.286116E-1,8.025894E-1,-8.156814E-1,-5.6331255E-2,-6.758597E-1,-2.678389E-2,9.219584E-1,-6.496656E-1,-1.0115097E0,-5.674609E-1,1.6425852E-1,-9.333807E-1,-8.404483E-1,-6.66356E-2,-1.6841027E-1,3.7032717E-1,6.086931E-1,1.1338593E0,1.7790927E-2,-9.053666E-1,-7.35667E-1,-1.0648446E0,-4.44345E-1,-9.7307825E-1,-3.6414612E-2,8.601795E-1,-5.375517E-1,-1.0847393E0,-1.0307088E0,-6.9704163E-1,5.28102E-1,-1.9676794E-1,-2.2872788E-1,5.555023E-1,4.6609208E-2,6.881195E-1,1.7753844E-1,8.318664E-1,8.038092E-1,1.2751615E0,-7.268458E-1,2.9370338E-1,-5.57112E-1,-9.674883E-1,-1.0352074E0,-5.8618456E-1,-1.0882179E0,-5.0091827E-1,-5.913988E-1,2.0528544E-1,-1.0509411E0,-5.963408E-1,-2.7888757E-1,2.4005571E-1,-6.8537015E-1,1.0105215E0,-8.279107E-1,3.7614235E-1,-1.1347932E0,-6.7936724E-1,-1.0470114E-1,-4.8692256E-2,-8.264194E-2,-4.2543244E-2,7.6400466E-2,9.510823E-3,-3.7391648E-2,3.7926845E-3,5.8462065E-2,-2.9539738E-2,1.2829991E-2,1.0013824E-1,-8.508027E-4,9.3392655E-2,8.397674E-2,1.0198675E-3,4.9538728E-2,-1.8524876E-2,4.276558E-2,1.0379261E-1,6.984175E-2,1.3449793E-1,1.532988E-1,1.1827765E-1,-9.009125E-2,3.1458035E-2,4.9391028E-2,-3.788629E-2,-9.263806E-2,-2.8831286E-2,-1.0514208E-1,-7.428355E-2,-1.1829739E-1,-9.1070674E-2,-4.3668352E-2,-1.1324173E-1,-1.135262E-1,-8.9841686E-2,-6.4314894E-2,3.0410757E-2,-7.7961616E-2,-1.6839465E-2,4.035597E-3,1.2497411E-1,2.5667027E-2,-1.0622244E-1,1.001815E-1,-6.454787E-2,-3.1416311E-3,-4.8997585E-2,1.3157764E-2,8.581942E-2,-1.0245222E-1,-1.2902232E-2,1.0970205E-1,-1.601589E-2,1.0881171E-2,-9.105222E-2,7.47752E-2,-4.6743527E-2,-1.16612665E-1,-7.473358E-2,-1.2132432E-2,-8.3590865E-2],"categories":[],"categories_nodes":[],"categories_segments":[],"categories_sizes":[],"default_left":[0,0,0,0,0,0,0,0,0,0,0,0,0,0,0,0,0,0,0,0,0,0,0,0,0,0,0,0,0,0,0,0,0,0,0,0,0,0,0,0,0,0,0,0,0,0,0,0,0,0,0,0,0,0,0,0,0,0,0,0,0,0,0,0,0,0,0,0,0,0,0,0,0,0,0,0,0,0,0,0,0,0,0,0,0,0,0,0,0,0,0,0,0,0,0,0,0,0,0,0,0,0,0,0,0,0,0,0,0,0,0,0,0,0,0,0,0,0,0,0,0,0,0,0,0,0,0],"id":5,"left_children":[1,3,5,7,9,11,13,15,17,19,21,23,25,27,29,31,33,35,37,39,41,43,45,47,49,51,53,55,57,59,61,63,65,67,69,71,73,75,77,79,81,83,85,87,89,91,93,95,97,99,101,103,105,107,109,111,113,115,117,119,121,123,125,-1,-1,-1,-1,-1,-1,-1,-1,-1,-1,-1,-1,-1,-1,-1,-1,-1,-1,-1,-1,-1,-1,-1,-1,-1,-1,-1,-1,-1,-1,-1,-1,-1,-1,-1,-1,-1,-1,-1,-1,-1,-1,-1,-1,-1,-1,-1,-1,-1,-1,-1,-1,-1,-1,-1,-1,-1,-1,-1,-1,-1,-1,-1,-1],"loss_changes":[1.0835291E4,7.7626816E3,1.5376387E3,1.0017511E3,2.8795322E3,6.129219E2,6.545095E2,4.456057E2,2.87708E2,1.0180137E3,2.1539221E2,1.0299414E2,2.776361E2,3.775644E2,4.0149414E1,9.475391E1,7.335291E1,1.6477104E2,1.3831815E2,5.9587915E2,4.258418E2,7.222984E1,1.9200562E1,5.0712708E1,7.733594E1,4.0837567E2,3.7382324E1,1.4079485E2,1.4129459E2,5.0729607E1,9.18811E0,1.2803711E1,6.9869934E1,1.731031E1,3.2329216E1,1.8895029E2,5.516889E1,3.264225E1,6.975061E1,2.4385657E2,3.394939E2,1.557124E2,1.5080664E2,1.7514542E1,3.47212E1,1.3676662E1,1.3793518E1,5.918152E0,6.213138E1,4.9632812E1,2.7332706E1,2.7733154E2,1.3596089E2,1.6096436E1,1.8256447E1,5.8432053E1,6.5694885E1,1.0101904E1,5.6058838E1,1.1283073E1,1.4931637E1,4.4143066E0,4.828684E0,0E0,0E0,0E0,0E0,0E0,0E0,0E0,0E0,0E0,0E0,0E0,0E0,0E0,0E0,0E0,0E0,0E0,0E0,0E0,0E0,0E0,0E0,0E0,0E0,0E0,0E0,0E0,0E0,0E0,0E0,0E0,0E0,0E0,0E0,0E0,0E0,0E0,0E0,0E0,0E0,0E0,0E0,0E0,0E0,0E0,0E0,0E0,0E0,0E0,0E0,0E0,0E0,0E0,0E0,0E0,0E0,0E0,0E0,0E0,0E0,0E0,0E0,0E0,0E0],"parents":[2147483647,0,0,1,1,2,2,3,3,4,4,5,5,6,6,7,7,8,8,9,9,10,10,11,11,12,12,13,13,14,14,15,15,16,16,17,17,18,18,19,19,20,20,21,21,22,22,23,23,24,24,25,25,26,26,27,27,28,28,29,29,30,30,31,31,32,32,33,33,34,34,35,35,36,36,37,37,38,38,39,39,40,40,41,41,42,42,43,43,44,44,45,45,46,46,47,47,48,48,49,49,50,50,51,51,52,52,53,53,54,54,55,55,56,56,57,57,58,58,59,59,60,60,61,61,62,62],"right_children":[2,4,6,8,10,12,14,16,18,20,22,24,26,28,30,32,34,36,38,40,42,44,46,48,50,52,54,56,58,60,62,64,66,68,70,72,74,76,78,80,82,84,86,88,90,92,94,96,98,100,102,104,106,108,110,112,114,116,118,120,122,124,126,-1,-1,-1,-1,-1,-1,-1,-1,-1,-1,-1,-1,-1,-1,-1,-1,-1,-1,-1,-1,-1,-1,-1,-1,-1,-1,-1,-1,-1,-1,-1,-1,-1,-1,-1,-1,-1,-1,-1,-1,-1,-1,-1,-1,-1,-1,-1,-1,-1,-1,-1,-1,-1,-1,-1,-1,-1,-1,-1,-1,-1,-1,-1,-1],"split_conditions":[1.8230183E-1,-3.3343425E-1,3.3254334E-1,-6.1093324E-1,8.359875E-1,-3.9746988E-1,6.107819E-1,5.2088016E-1,6.5254766E-1,-4.7330283E-2,1.0303091E0,-4.192311E-1,8.703113E-1,1.1227713E-1,9.0522486E-1,-9.197921E-1,-1.0399625E0,1.7083371E0,-4.716893E-1,4.858396E-1,-4.5529265E-2,-1.252429E-1,1.1985376E0,-5.194931E-1,2.1602263E0,5.770831E-1,1.6650566E0,-4.9700758E-1,-3.4026435E-1,4.216138E-1,1.9027545E0,4.169068E0,1.0655173E0,-8.2719547E-1,-6.361913E-1,-1.7087144E0,1.1442597E0,1.6649643E0,-4.3853968E-1,-4.3605286E-1,-1.8596894E-1,7.6887524E-1,-6.539005E-1,2.0856123E0,-1.6123924E-1,1.3425818E-1,1.5275192E0,-3.2537097E-1,4.9100286E-1,-1.4839707E-1,3.7093008E0,-1.4839707E-1,1.7741054E0,-7.190951E-1,-1.0629646E0,3.6108956E-1,1.2731637E0,-4.6831462E-1,1.2333603E0,2.937717E-1,9.323009E-1,2.9249597E0,-8.015026E-1,-1.0470114E-1,-4.8692256E-2,-8.264194E-2,-4.2543244E-2,7.6400466E-2,9.510823E-3,-3.7391648E-2,3.7926845E-3,5.8462065E-2,-2.9539738E-2,1.2829991E-2,1.0013824E-1,-8.508027E-4,9.3392655E-2,8.397674E-2,1.0198675E-3,4.9538728E-2,-1.8524876E-2,4.276558E-2,1.0379261E-1,6.984175E-2,1.3449793E-1,1.532988E-1,1.1827765E-1,-9.009125E-2,3.1458035E-2,4.9391028E-2,-3.788629E-2,-9.263806E-2,-2.8831286E-2,-1.0514208E-1,-7.428355E-2,-1.1829739E-1,-9.1070674E-2,-4.3668352E-2,-1.1324173E-1,-1.135262E-1,-8.9841686E-2,-6.4314894E-2,3.0410757E-2,-7.7961616E-2,-1.6839465E-2,4.035597E-3,1.2497411E-1,2.5667027E-2,-1.0622244E-1,1.001815E-1,-6.454787E-2,-3.1416311E-3,-4.8997585E-2,1.3157764E-2,8.581942E-2,-1.0245222E-1,-1.2902232E-2,1.0970205E-1,-1.601589E-2,1.0881171E-2,-9.105222E-2,7.47752E-2,-4.6743527E-2,-1.16612665E-1,-7.473358E-2,-1.2132432E-2,-8.3590865E-2],"split_indices":[1,0,8,0,2,9,2,4,4,9,2,15,2,9,2,4,15,20,9,8,0,9,2,0,1,9,9,9,0,9,9,15,8,3,9,20,8,20,22,1,6,4,4,12,15,9,9,4,0,0,1,0,1,4,4,4,20,0,1,1,1,1,13,0,0,0,0,0,0,0,0,0,0,0,0,0,0,0,0,0,0,0,0,0,0,0,0,0,0,0,0,0,0,0,0,0,0,0,0,0,0,0,0,0,0,0,0,0,0,0,0,0,0,0,0,0,0,0,0,0,0,0,0,0,0,0,0],"split_type":[0,0,0,0,0,0,0,0,0,0,0,0,0,0,0,0,0,0,0,0,0,0,0,0,0,0,0,0,0,0,0,0,0,0,0,0,0,0,0,0,0,0,0,0,0,0,0,0,0,0,0,0,0,0,0,0,0,0,0,0,0,0,0,0,0,0,0,0,0,0,0,0,0,0,0,0,0,0,0,0,0,0,0,0,0,0,0,0,0,0,0,0,0,0,0,0,0,0,0,0,0,0,0,0,0,0,0,0,0,0,0,0,0,0,0,0,0,0,0,0,0,0,0,0,0,0,0],"sum_hessian":[4.2164656E4,2.6163264E4,1.6001393E4,9.557038E3,1.6606227E4,1.262015E4,3.3812424E3,4.4435566E3,5.1134814E3,1.5345276E4,1.2609495E3,7.052868E3,5.567282E3,2.702372E3,6.7887036E2,3.4981208E3,9.454356E2,3.7696448E3,1.3438368E3,6.1932734E3,9.152003E3,3.4952216E2,9.114273E2,1.1451388E3,5.907729E3,4.272544E3,1.2947383E3,2.0982703E3,6.041016E2,1.8904265E2,4.8982767E2,1.5007966E3,1.9973242E3,1.691804E2,7.762552E2,3.480341E3,2.8930377E2,6.6627985E2,6.775569E2,2.1129678E3,4.0803057E3,2.7455984E3,6.406405E3,9.405385E1,2.5546829E2,1.3947836E2,7.71949E2,3.7925107E2,7.658877E2,5.6717227E3,2.3600671E2,3.4839812E3,7.885629E2,1.0714956E3,2.2324269E2,1.1178622E3,9.804082E2,5.323855E1,5.508631E2,1.43526E2,4.5516647E1,4.343913E2,5.543638E1,1.4562144E3,4.458227E1,1.3515073E3,6.458169E2,1.0901993E2,6.0160473E1,4.4202206E2,3.3423315E2,2.630794E2,3.2172615E3,1.4840404E2,1.4089973E2,6.282457E2,3.803415E1,5.535022E2,1.24054726E2,1.1260425E3,9.8692535E2,1.3787661E3,2.7015396E3,2.2999739E3,4.4562457E2,1.6858835E3,4.720521E3,8.070032E1,1.3353534E1,1.9707071E2,5.839759E1,5.7727543E1,8.1750824E1,5.593062E2,2.1264275E2,1.6953403E2,2.0971706E2,6.027246E2,1.631631E2,4.541164E3,1.1305583E3,2.0074117E2,3.5265553E1,2.410553E3,1.0734282E3,6.819199E2,1.06643E2,8.98071E0,1.0625149E3,6.0808835E0,2.171618E2,5.151133E2,6.027489E2,8.350728E2,1.4533534E2,3.255274E1,2.0685806E1,5.130201E2,3.7843025E1,1.1606295E1,1.3191971E2,3.1676313E1,1.3840335E1,4.0003137E2,3.4359936E1,1.2533098E1,4.2903282E1],"tree_param":{"num_deleted":"0","num_feature":"23","num_nodes":"127","size_leaf_vector":"1"}},{"base_weights":[-7.3626894E-3,4.3827322E-1,-5.0309026E-1,-2.0564401E-1,8.4464294E-1,-6.8701124E-1,1.2871304E-1,-4.7754738E-1,1.5101475E-1,9.3825275E-1,-5.847374E-1,-9.213934E-1,-4.1503128E-1,3.31042E-1,-7.981326E-1,-7.867712E-1,-1.4380105E-1,7.813033E-1,4.7930606E-2,7.2197616E-1,1.1348937E0,-5.9005238E-2,-8.598899E-1,-6.421347E-1,-1.0042189E0,-2.9910433E-1,-9.451828E-1,3.8373724E-2,7.233936E-1,-4.520706E-1,-1.0317987E0,-9.242623E-1,-5.8834016E-1,-3.2181245E-1,1.6988309E-1,1.2150018E0,3.9300543E-1,-2.389406E-2,7.293951E-1,5.6044555E-1,1.0679982E0,8.718528E-1,1.2297009E0,2.784327E-1,-7.173829E-1,-7.002437E-1,-9.994921E-1,-1.0370933E0,-5.124435E-1,-1.025663E0,-4.631004E-1,-8.832781E-1,-1.0990099E-1,-1.0313233E0,-6.2689537E-1,2.970056E-1,-1.837235E-1,1.5622424E-1,9.3720543E-1,-5.717784E-1,3.9416334E-1,-1.165428E0,-8.940156E-1,-1.0015028E-1,-7.826515E-2,-1.304854E-2,-8.299526E-2,-7.4393906E-2,-2.608346E-2,-4.7624275E-2,2.7953861E-2,1.2558036E-1,-5.8942556E-2,-8.156213E-3,5.690449E-2,5.114416E-2,-1.1377995E-2,9.3304E-2,8.882187E-3,2.330605E-2,6.781836E-2,1.24116756E-1,5.9660774E-2,3.5349376E-2,9.7634524E-2,1.2617806E-1,4.7942795E-2,-4.1422855E-2,6.1709523E-2,-1.3761545E-2,-1.07016206E-1,5.0291996E-2,-7.16986E-2,-1.1041123E-1,-6.8566464E-2,-1.06388666E-1,1.1603097E-2,-4.1132867E-2,-1.0988381E-1,-1.1034198E-1,-8.923156E-2,-2.812579E-2,-1.1105879E-1,-9.476141E-2,1.080454E-2,-2.595199E-2,3.8388334E-2,-1.0646166E-1,-4.5908753E-2,-4.2475346E-2,-8.703404E-2,-4.566932E-2,6.179088E-2,1.6045172E-3,-4.2732384E-2,-6.341201E-2,3.7561085E-2,4.2096615E-2,1.095735E-1,-6.544068E-2,2.778528E-2,6.294169E-2,-6.0014762E-2,-3.7570935E-2,-1.17281295E-1,-5.1559474E-2,-9.50667E-2],"categories":[],"categories_nodes":[],"categories_segments":[],"categories_sizes":[],"default_left":[0,0,0,0,0,0,0,0,0,0,0,0,0,0,0,0,0,0,0,0,0,0,0,0,0,0,0,0,0,0,0,0,0,0,0,0,0,0,0,0,0,0,0,0,0,0,0,0,0,0,0,0,0,0,0,0,0,0,0,0,0,0,0,0,0,0,0,0,0,0,0,0,0,0,0,0,0,0,0,0,0,0,0,0,0,0,0,0,0,0,0,0,0,0,0,0,0,0,0,0,0,0,0,0,0,0,0,0,0,0,0,0,0,0,0,0,0,0,0,0,0,0,0,0,0,0,0],"id":6,"left_children":[1,3,5,7,9,11,13,15,17,19,21,23,25,27,29,31,33,35,37,39,41,43,45,47,49,51,53,55,57,59,61,63,65,67,69,71,73,75,77,79,81,83,85,87,89,91,93,95,97,99,101,103,105,107,109,111,113,115,117,119,121,123,125,-1,-1,-1,-1,-1,-1,-1,-1,-1,-1,-1,-1,-1,-1,-1,-1,-1,-1,-1,-1,-1,-1,-1,-1,-1,-1,-1,-1,-1,-1,-1,-1,-1,-1,-1,-1,-1,-1,-1,-1,-1,-1,-1,-1,-1,-1,-1,-1,-1,-1,-1,-1,-1,-1,-1,-1,-1,-1,-1,-1,-1,-1,-1,-1],"loss_changes":[9.114951E3,5.6856694E3,2.2697803E3,8.154132E2,1.7829883E3,9.6401953E2,8.2628345E2,4.9225256E2,2.3631506E2,5.3091113E2,1.18480865E2,1.872876E2,4.3020166E2,4.152197E2,6.3379425E1,6.701306E1,1.2824417E2,8.5620605E1,1.530939E2,3.3235156E2,1.6219727E2,6.2979824E1,1.1286346E1,9.48125E1,7.221875E1,6.353349E2,3.379944E1,1.1908958E2,1.8720508E2,3.264361E1,7.6215515E0,1.5196289E1,1.1231213E2,3.751329E1,5.90654E1,1.848587E1,2.2705372E1,1.3624638E2,3.8820923E1,1.5646045E2,1.539248E2,9.379138E1,1.1516406E2,4.4251137E1,1.9494968E1,5.4818115E0,8.586456E0,1.4309204E1,8.27493E1,6.148828E1,2.8019115E1,8.97959E1,3.2101233E2,1.8319092E1,1.2924286E1,2.319349E2,5.4291504E1,7.378444E1,9.134418E1,1.9892761E1,9.79318E0,9.3322754E-1,4.5683746E0,0E0,0E0,0E0,0E0,0E0,0E0,0E0,0E0,0E0,0E0,0E0,0E0,0E0,0E0,0E0,0E0,0E0,0E0,0E0,0E0,0E0,0E0,0E0,0E0,0E0,0E0,0E0,0E0,0E0,0E0,0E0,0E0,0E0,0E0,0E0,0E0,0E0,0E0,0E0,0E0,0E0,0E0,0E0,0E0,0E0,0E0,0E0,0E0,0E0,0E0,0E0,0E0,0E0,0E0,0E0,0E0,0E0,0E0,0E0,0E0,0E0,0E0,0E0,0E0],"parents":[2147483647,0,0,1,1,2,2,3,3,4,4,5,5,6,6,7,7,8,8,9,9,10,10,11,11,12,12,13,13,14,14,15,15,16,16,17,17,18,18,19,19,20,20,21,21,22,22,23,23,24,24,25,25,26,26,27,27,28,28,29,29,30,30,31,31,32,32,33,33,34,34,35,35,36,36,37,37,38,38,39,39,40,40,41,41,42,42,43,43,44,44,45,45,46,46,47,47,48,48,49,49,50,50,51,51,52,52,53,53,54,54,55,55,56,56,57,57,58,58,59,59,60,60,61,61,62,62],"right_children":[2,4,6,8,10,12,14,16,18,20,22,24,26,28,30,32,34,36,38,40,42,44,46,48,50,52,54,56,58,60,62,64,66,68,70,72,74,76,78,80,82,84,86,88,90,92,94,96,98,100,102,104,106,108,110,112,114,116,118,120,122,124,126,-1,-1,-1,-1,-1,-1,-1,-1,-1,-1,-1,-1,-1,-1,-1,-1,-1,-1,-1,-1,-1,-1,-1,-1,-1,-1,-1,-1,-1,-1,-1,-1,-1,-1,-1,-1,-1,-1,-1,-1,-1,-1,-1,-1,-1,-1,-1,-1,-1,-1,-1,-1,-1,-1,-1,-1,-1,-1,-1,-1,-1,-1,-1,-1],"split_conditions":[-1.4326732E-1,-2.912995E-1,6.9693613E-1,-5.121143E-1,1.0015578E0,-3.9746988E-1,8.2242376E-1,-1.630237E-1,-7.711777E-1,1.4556019E-1,1.0809717E0,-4.565501E-1,9.838478E-1,-2.1904062E-1,8.055457E-1,-6.77418E-1,7.0368063E-1,-7.428359E-1,1.6244831E0,4.828422E-1,-3.109334E-2,9.608451E-1,-7.6567394E-1,-7.3466974E-1,2.1602263E0,-3.456909E-1,1.5275192E0,3.022866E-1,-1.4839707E-1,4.862666E-1,2.0385005E-1,-9.364103E-1,-4.083269E-1,-8.969084E-1,-6.4779884E-1,1.700363E-2,-7.8425485E-1,-1.3436601E0,1.0784606E0,-4.9700758E-1,5.5471665E-1,-4.4542804E-1,8.055457E-1,6.575765E-1,1.3314841E0,-2.471352E0,1.4663371E0,8.685846E-1,4.9100286E-1,3.5086295E-1,9.4458544E-1,1.7741054E0,5.770831E-1,2.9249597E0,-3.0754825E-1,-4.6104935E-1,4.9455354E-1,-4.7601503E-1,-2.7072194E-1,1.9251469E0,1.1738851E0,-8.2340753E-1,1.0303091E0,-1.0015028E-1,-7.826515E-2,-1.304854E-2,-8.299526E-2,-7.4393906E-2,-2.608346E-2,-4.7624275E-2,2.7953861E-2,1.2558036E-1,-5.8942556E-2,-8.156213E-3,5.690449E-2,5.114416E-2,-1.1377995E-2,9.3304E-2,8.882187E-3,2.330605E-2,6.781836E-2,1.24116756E-1,5.9660774E-2,3.5349376E-2,9.7634524E-2,1.2617806E-1,4.7942795E-2,-4.1422855E-2,6.1709523E-2,-1.3761545E-2,-1.07016206E-1,5.0291996E-2,-7.16986E-2,-1.1041123E-1,-6.8566464E-2,-1.06388666E-1,1.1603097E-2,-4.1132867E-2,-1.0988381E-1,-1.1034198E-1,-8.923156E-2,-2.812579E-2,-1.1105879E-1,-9.476141E-2,1.080454E-2,-2.595199E-2,3.8388334E-2,-1.0646166E-1,-4.5908753E-2,-4.2475346E-2,-8.703404E-2,-4.566932E-2,6.179088E-2,1.6045172E-3,-4.2732384E-2,-6.341201E-2,3.7561085E-2,4.2096615E-2,1.095735E-1,-6.544068E-2,2.778528E-2,6.294169E-2,-6.0014762E-2,-3.7570935E-2,-1.17281295E-1,-5.1559474E-2,-9.50667E-2],"split_indices":[1,0,8,0,0,9,0,4,3,9,2,15,2,9,2,0,4,1,20,3,0,15,1,0,1,2,9,4,0,9,9,4,9,0,19,17,5,20,13,9,5,19,2,9,0,20,9,4,0,4,2,1,9,1,22,0,1,0,22,5,1,12,2,0,0,0,0,0,0,0,0,0,0,0,0,0,0,0,0,0,0,0,0,0,0,0,0,0,0,0,0,0,0,0,0,0,0,0,0,0,0,0,0,0,0,0,0,0,0,0,0,0,0,0,0,0,0,0,0,0,0,0,0,0,0,0,0],"split_type":[0,0,0,0,0,0,0,0,0,0,0,0,0,0,0,0,0,0,0,0,0,0,0,0,0,0,0,0,0,0,0,0,0,0,0,0,0,0,0,0,0,0,0,0,0,0,0,0,0,0,0,0,0,0,0,0,0,0,0,0,0,0,0,0,0,0,0,0,0,0,0,0,0,0,0,0,0,0,0,0,0,0,0,0,0,0,0,0,0,0,0,0,0,0,0,0,0,0,0,0,0,0,0,0,0,0,0,0,0,0,0,0,0,0,0,0,0,0,0,0,0,0,0,0,0,0,0],"sum_hessian":[4.1258176E4,2.172686E4,1.9531316E4,8.406597E3,1.3320264E4,1.5127531E4,4.4037847E3,4.7698794E3,3.6367175E3,1.2501862E4,8.184005E2,8.124099E3,7.003432E3,3.6152288E3,7.8855597E2,2.4751953E3,2.2946838E3,5.1025854E2,3.126459E3,5.955902E3,6.545961E3,2.8158746E2,5.3681305E2,1.8603629E3,6.263736E3,5.748078E3,1.2553542E3,2.0712854E3,1.5439435E3,3.1901947E2,4.695365E2,1.4599506E3,1.01524475E3,1.4639095E3,8.307744E2,2.400322E2,2.7022635E2,2.82923E3,2.9722888E2,4.0621985E3,1.8937032E3,1.7369701E3,4.8089907E3,1.8655145E2,9.503601E1,2.5323486E2,2.835782E2,4.581444E2,1.4022185E3,6.0241104E3,2.3962595E2,1.4053448E3,4.3427334E3,9.86209E2,2.6914523E2,9.567796E2,1.1145057E3,4.2316434E2,1.1207792E3,2.7976794E2,3.9251507E1,2.3457495E2,2.3496155E2,9.407527E2,5.191978E2,3.512213E2,6.6402344E2,1.8336226E2,1.2805472E3,1.2005114E2,7.1072327E2,2.3502193E2,5.0102715E0,7.326233E1,1.9696402E2,4.0607416E2,2.423156E3,2.2518399E2,7.20449E1,1.0752662E3,2.9869324E3,1.383741E3,5.099622E2,2.921373E2,1.4448328E3,4.6111494E3,1.9784149E2,6.1185852E1,1.253656E2,3.6477657E1,5.8558353E1,3.0769167E0,2.5015796E2,2.1078941E2,7.278877E1,4.478166E2,1.0327849E1,1.1974398E3,2.0477872E2,3.8006338E3,2.2234763E3,1.8820439E2,5.142156E1,1.319739E3,8.56058E1,3.333225E3,1.00950806E3,9.3117194E2,5.5037075E1,1.4854623E2,1.2059901E2,2.8559207E2,6.7118756E2,6.128564E2,5.0164932E2,9.153117E1,3.3163318E2,2.6417352E2,8.5660565E2,2.5518086E2,2.4587084E1,3.2038254E1,7.2132545E0,2.653868E0,2.3192108E2,3.1909935E1,2.030516E2],"tree_param":{"num_deleted":"0","num_feature":"23","num_nodes":"127","size_leaf_vector":"1"}},{"base_weights":[-7.5225467E-3,3.1605753E-1,-5.997983E-1,-4.2296454E-1,5.988301E-1,-7.443503E-1,-7.36984E-2,-6.1210406E-1,2.750245E-2,6.8520635E-1,-5.5254894E-1,-8.740634E-1,-4.064732E-1,1.3189954E-1,-8.176396E-1,-8.502214E-1,-3.9369783E-1,-1.8265516E-1,2.7736455E-1,3.0268896E-1,8.9672536E-1,-1.0310613E-2,-8.2733214E-1,-1.0932958E0,-7.772057E-1,-2.2477211E-1,-8.213191E-1,-2.259284E-1,4.217451E-1,-3.9873648E-1,-9.9636376E-1,-9.6025974E-1,-6.7539316E-1,-2.8319606E-1,-8.5448766E-1,-1.1502981E-1,-5.1363945E-1,5.627143E-1,8.075602E-2,3.5908905E-1,-1.8426424E-1,1.1753875E0,7.3964196E-1,-3.7793523E-1,4.8789605E-1,-9.432569E-1,-6.266732E-1,-1.1092777E0,-1.694388E-1,-7.088161E-1,-1.1327806E0,-8.561818E-1,-8.7789744E-2,3.5657626E-1,-8.511064E-1,-3.0989453E-1,3.3928382E-1,-3.3814482E-2,5.893051E-1,-6.6799396E-1,5.668984E-1,-1.0494173E0,-5.493279E-1,-9.727695E-2,-2.6890254E-2,1.17024025E-2,-7.188823E-2,-4.5653623E-2,3.5726435E-3,-6.4619265E-2,-1.1222265E-1,-4.0591333E-2,6.864627E-4,-2.0531448E-2,-7.088045E-2,6.656242E-2,-2.1507604E-2,-4.8347913E-2,1.6907124E-2,-5.03003E-4,4.407625E-2,-6.3298695E-2,1.3315703E-2,1.2683164E-1,7.9675086E-2,2.7171234E-2,8.5628554E-2,-5.7958532E-2,1.2174248E-2,8.044061E-2,-5.2130623E-3,-6.049753E-2,-1.0540004E-1,-1.6436893E-2,-7.274415E-2,-1.1229769E-1,-2.7335275E-2,5.971046E-2,-6.214642E-2,-8.255827E-2,-4.6470944E-2,-8.411338E-2,-1.1699084E-1,-9.5825806E-2,1.1096603E-2,-1.6215391E-2,1.3373722E-1,1.0313463E-1,-8.479021E-2,-9.122675E-2,-3.5452183E-2,9.044024E-3,-4.272777E-2,5.9219766E-2,-3.777607E-2,-5.9975248E-2,1.5585479E-2,7.828832E-2,8.637636E-3,-8.8030055E-2,-2.4324067E-2,7.783275E-2,-4.897922E-2,-9.332682E-2,-1.1617366E-1,2.1155395E-3,-7.2278865E-2],"categories":[],"categories_nodes":[],"categories_segments":[],"categories_sizes":[],"default_left":[0,0,0,0,0,0,0,0,0,0,0,0,0,0,0,0,0,0,0,0,0,0,0,0,0,0,0,0,0,0,0,0,0,0,0,0,0,0,0,0,0,0,0,0,0,0,0,0,0,0,0,0,0,0,0,0,0,0,0,0,0,0,0,0,0,0,0,0,0,0,0,0,0,0,0,0,0,0,0,0,0,0,0,0,0,0,0,0,0,0,0,0,0,0,0,0,0,0,0,0,0,0,0,0,0,0,0,0,0,0,0,0,0,0,0,0,0,0,0,0,0,0,0,0,0,0,0],"id":7,"left_children":[1,3,5,7,9,11,13,15,17,19,21,23,25,27,29,31,33,35,37,39,41,43,45,47,49,51,53,55,57,59,61,63,65,67,69,71,73,75,77,79,81,83,85,87,89,91,93,95,97,99,101,103,105,107,109,111,113,115,117,119,121,123,125,-1,-1,-1,-1,-1,-1,-1,-1,-1,-1,-1,-1,-1,-1,-1,-1,-1,-1,-1,-1,-1,-1,-1,-1,-1,-1,-1,-1,-1,-1,-1,-1,-1,-1,-1,-1,-1,-1,-1,-1,-1,-1,-1,-1,-1,-1,-1,-1,-1,-1,-1,-1,-1,-1,-1,-1,-1,-1,-1,-1,-1,-1,-1,-1],"loss_changes":[7.731268E3,5.4520137E3,1.0838525E3,6.1518823E2,1.8769204E3,4.8965918E2,4.7015424E2,2.641261E2,1.122165E2,1.4198994E3,1.9626791E2,1.7068457E2,2.3374792E2,2.4990271E2,4.943112E1,4.6136597E1,1.3490594E2,2.5923439E1,5.4724213E1,1.7175739E2,4.9385938E2,8.151426E1,1.974524E1,3.632422E1,1.3552808E2,1.867095E2,3.3456543E1,5.129135E1,1.01624176E2,5.2562553E1,1.0471863E1,1.2626343E1,3.2573822E1,1.1844859E2,2.7878357E1,3.422495E1,1.1687618E1,3.2006462E1,2.894201E1,1.6662592E2,9.260412E1,1.4229053E2,3.944126E2,2.5872791E1,3.2342804E1,2.0047058E1,1.4932663E1,2.7527588E1,1.5350676E1,1.3371436E2,8.790405E0,3.8102173E1,1.8840587E2,2.0388979E1,2.7675903E1,4.4191162E1,2.5608864E1,3.861533E1,9.467755E1,1.397998E1,1.02791E1,4.334076E0,5.1134357E0,0E0,0E0,0E0,0E0,0E0,0E0,0E0,0E0,0E0,0E0,0E0,0E0,0E0,0E0,0E0,0E0,0E0,0E0,0E0,0E0,0E0,0E0,0E0,0E0,0E0,0E0,0E0,0E0,0E0,0E0,0E0,0E0,0E0,0E0,0E0,0E0,0E0,0E0,0E0,0E0,0E0,0E0,0E0,0E0,0E0,0E0,0E0,0E0,0E0,0E0,0E0,0E0,0E0,0E0,0E0,0E0,0E0,0E0,0E0,0E0,0E0,0E0,0E0,0E0],"parents":[2147483647,0,0,1,1,2,2,3,3,4,4,5,5,6,6,7,7,8,8,9,9,10,10,11,11,12,12,13,13,14,14,15,15,16,16,17,17,18,18,19,19,20,20,21,21,22,22,23,23,24,24,25,25,26,26,27,27,28,28,29,29,30,30,31,31,32,32,33,33,34,34,35,35,36,36,37,37,38,38,39,39,40,40,41,41,42,42,43,43,44,44,45,45,46,46,47,47,48,48,49,49,50,50,51,51,52,52,53,53,54,54,55,55,56,56,57,57,58,58,59,59,60,60,61,61,62,62],"right_children":[2,4,6,8,10,12,14,16,18,20,22,24,26,28,30,32,34,36,38,40,42,44,46,48,50,52,54,56,58,60,62,64,66,68,70,72,74,76,78,80,82,84,86,88,90,92,94,96,98,100,102,104,106,108,110,112,114,116,118,120,122,124,126,-1,-1,-1,-1,-1,-1,-1,-1,-1,-1,-1,-1,-1,-1,-1,-1,-1,-1,-1,-1,-1,-1,-1,-1,-1,-1,-1,-1,-1,-1,-1,-1,-1,-1,-1,-1,-1,-1,-1,-1,-1,-1,-1,-1,-1,-1,-1,-1,-1,-1,-1,-1,-1,-1,-1,-1,-1,-1,-1,-1,-1,-1,-1,-1],"split_conditions":[2.3154806E-1,-4.4691613E-1,3.3254334E-1,4.4801566E-1,8.055457E-1,-6.4817235E-2,5.3053737E-1,-6.9533515E-1,-5.569883E-1,-1.4839707E-1,1.0303091E0,-5.5996305E-1,8.359875E-1,-4.6661675E-1,8.055457E-1,-4.851616E-1,3.198068E-1,1.0650265E0,-9.105576E-1,2.0690382E0,-1.2339563E-1,7.216063E-1,9.9792695E-1,6.4487773E-1,7.7883846E-1,-4.5470655E-1,-7.190951E-1,1.2731637E0,-1.4839707E-1,4.862666E-1,1.9027545E0,3.8634493E0,-1.668233E0,1.1928453E0,-2.5062746E-1,-8.5997975E-1,-8.215009E-1,-1.3424216E-2,-1.2293158E0,-6.578161E-1,6.6213346E-1,7.7174664E-1,-4.348021E-1,9.191685E-1,-3.758538E-1,-7.8672683E-1,1.2609446E0,2.1602263E0,-1.5172093E-1,-1.4839707E-1,5.2088016E-1,1.7741054E0,2.3004122E0,1.1368186E0,2.3260996E0,-8.694512E-1,9.773108E-1,-4.7601503E-1,9.071961E-1,1.2938946E0,1.0563122E0,1.1050748E0,-8.015026E-1,-9.727695E-2,-2.6890254E-2,1.17024025E-2,-7.188823E-2,-4.5653623E-2,3.5726435E-3,-6.4619265E-2,-1.1222265E-1,-4.0591333E-2,6.864627E-4,-2.0531448E-2,-7.088045E-2,6.656242E-2,-2.1507604E-2,-4.8347913E-2,1.6907124E-2,-5.03003E-4,4.407625E-2,-6.3298695E-2,1.3315703E-2,1.2683164E-1,7.9675086E-2,2.7171234E-2,8.5628554E-2,-5.7958532E-2,1.2174248E-2,8.044061E-2,-5.2130623E-3,-6.049753E-2,-1.0540004E-1,-1.6436893E-2,-7.274415E-2,-1.1229769E-1,-2.7335275E-2,5.971046E-2,-6.214642E-2,-8.255827E-2,-4.6470944E-2,-8.411338E-2,-1.1699084E-1,-9.5825806E-2,1.1096603E-2,-1.6215391E-2,1.3373722E-1,1.0313463E-1,-8.479021E-2,-9.122675E-2,-3.5452183E-2,9.044024E-3,-4.272777E-2,5.9219766E-2,-3.777607E-2,-5.9975248E-2,1.5585479E-2,7.828832E-2,8.637636E-3,-8.8030055E-2,-2.4324067E-2,7.783275E-2,-4.897922E-2,-9.332682E-2,-1.1617366E-1,2.1155395E-3,-7.2278865E-2],"split_indices":[1,0,8,4,2,9,2,0,9,0,2,2,2,9,2,4,9,13,15,18,4,9,9,4,2,2,4,20,0,9,9,5,20,8,12,13,15,5,10,19,3,5,9,12,15,1,2,1,7,0,4,1,5,2,1,20,13,0,1,12,0,4,13,0,0,0,0,0,0,0,0,0,0,0,0,0,0,0,0,0,0,0,0,0,0,0,0,0,0,0,0,0,0,0,0,0,0,0,0,0,0,0,0,0,0,0,0,0,0,0,0,0,0,0,0,0,0,0,0,0,0,0,0,0,0,0,0],"split_type":[0,0,0,0,0,0,0,0,0,0,0,0,0,0,0,0,0,0,0,0,0,0,0,0,0,0,0,0,0,0,0,0,0,0,0,0,0,0,0,0,0,0,0,0,0,0,0,0,0,0,0,0,0,0,0,0,0,0,0,0,0,0,0,0,0,0,0,0,0,0,0,0,0,0,0,0,0,0,0,0,0,0,0,0,0,0,0,0,0,0,0,0,0,0,0,0,0,0,0,0,0,0,0,0,0,0,0,0,0,0,0,0,0,0,0,0,0,0,0,0,0,0,0,0,0,0,0],"sum_hessian":[4.033886E4,2.608708E4,1.4251778E4,7.21923E3,1.886785E4,1.1179631E4,3.0721475E3,5.084162E3,2.1350679E3,1.7551541E4,1.3163093E3,8.0771704E3,3.1024607E3,2.4075986E3,6.645489E2,2.430939E3,2.653223E3,1.1598193E3,9.752485E2,6.250456E3,1.1301085E4,4.430541E2,8.732551E2,2.471887E3,5.605283E3,2.1585603E3,9.4390027E2,1.0775425E3,1.3300562E3,1.9970378E2,4.648451E2,1.4891577E3,9.4178125E2,2.1413271E3,5.1189584E2,9.641714E2,1.9564798E2,3.9708023E2,5.781683E2,5.601894E3,6.485622E2,4.0716294E3,7.2294556E3,2.5507602E2,1.879781E2,5.51146E2,3.2210913E2,2.4296555E3,4.2231525E1,4.703607E3,9.016767E2,3.8387375E2,1.7746866E3,2.3010578E1,9.2088965E2,9.385641E2,1.3897841E2,3.5787344E2,9.721827E2,1.5640114E2,4.330264E1,4.1432602E2,5.051908E1,1.4622914E3,2.6866331E1,4.8909508E1,8.9287177E2,1.3870233E3,7.5430383E2,2.8982874E2,2.2206711E2,2.8403436E2,6.801371E2,7.6633354E1,1.19014626E2,3.508087E2,4.6271526E1,7.764287E1,5.005254E2,1.0264926E3,4.5754014E3,2.6829404E2,3.8026816E2,3.267369E3,8.0426044E2,1.4432025E3,5.786253E3,1.8162105E2,7.345496E1,1.1820721E2,6.9770905E1,1.3752359E2,4.136224E2,5.8115993E1,2.6399316E2,2.3901423E3,3.9513218E1,1.5546633E1,2.6684893E1,3.1800652E3,1.5235416E3,1.0449588E2,7.971808E2,3.4723456E2,3.66392E1,1.687519E3,8.7167595E1,1.4840442E1,8.170137E0,8.191618E2,1.017279E2,2.1285442E2,7.2570966E2,1.028689E2,3.6109505E1,8.928912E1,2.6858432E2,7.015849E2,2.7059775E2,1.0356383E2,5.283731E1,3.6302452E1,7.000187E0,2.0826678E2,2.0605922E2,1.1983939E1,3.853514E1],"tree_param":{"num_deleted":"0","num_feature":"23","num_nodes":"127","size_leaf_vector":"1"}},{"base_weights":[-7.636853E-3,2.8152123E-1,-5.7644576E-1,-3.0781496E-1,5.7637435E-1,-7.1200925E-1,-8.669258E-2,-6.691314E-1,-1.11953884E-1,6.663907E-1,-5.282055E-1,-9.2266357E-1,-5.0662416E-1,9.097788E-2,-8.592885E-1,-8.0161875E-1,-1.2083704E-1,-2.322941E-1,2.488866E-1,3.822467E-1,8.560843E-1,-1.8808506E-2,-7.940211E-1,-1.0249395E0,-7.9318553E-1,-5.449558E-1,5.9020895E-1,4.8205176E-1,-1.10664584E-1,-7.291786E-1,-1.0821713E0,-9.239871E-1,-6.273845E-1,3.9948696E-1,-2.3393176E-1,-1.6213897E-1,-7.1750635E-1,-2.155668E-2,4.8760238E-1,2.8133652E-1,7.149331E-1,2.4980566E-1,9.3324023E-1,-3.9248735E-1,3.8370803E-1,-9.0754235E-1,-5.856641E-1,-1.0630499E0,-3.8649908E-1,-6.346268E-1,-1.1080725E0,-5.895263E-1,2.6918927E-1,1.3706657E0,-5.9428304E-1,-6.8720125E-2,7.3598444E-1,1.20192625E-1,-3.6753574E-1,-6.0571885E-1,-8.7234336E-1,-1.1210941E0,-5.0919354E-1,-9.3635514E-2,-2.5382174E-2,-7.197013E-2,-2.6901055E-2,5.853435E-2,-8.983477E-3,-6.608545E-2,-1.672264E-2,-3.2618828E-2,6.3679153E-3,-9.294295E-2,-3.8719725E-2,-4.1141804E-2,8.555158E-3,6.124713E-2,-5.8775777E-3,3.2481346E-2,-4.8503406E-2,1.0691865E-1,4.9923714E-2,7.298995E-2,-1.44394785E-2,1.22102596E-1,8.234262E-2,-7.379289E-2,-3.0362655E-3,7.267561E-2,-1.7379648E-4,-5.669368E-2,-1.0158651E-1,-1.2598919E-2,-6.857416E-2,-1.0734061E-1,4.7846334E-3,2.7595779E-2,-6.566449E-2,-7.487538E-2,-3.2893345E-2,-1.139665E-1,-5.6497283E-2,-9.552151E-2,-4.970443E-2,1.22570634E-1,-3.168778E-2,1.58496E-1,-9.4627164E-2,-7.2476126E-2,5.2858677E-2,8.061375E-3,-7.828977E-2,1.0852858E-1,5.5081397E-2,-3.4177743E-2,4.9731627E-2,-2.3606794E-2,-7.741828E-2,-8.432717E-2,-4.1335978E-2,-9.629964E-2,-4.2868473E-2,-5.0787188E-2,-1.1351903E-1,3.0020365E-2,-8.936318E-2],"categories":[],"categories_nodes":[],"categories_segments":[],"categories_sizes":[],"default_left":[0,0,0,0,0,0,0,0,0,0,0,0,0,0,0,0,0,0,0,0,0,0,0,0,0,0,0,0,0,0,0,0,0,0,0,0,0,0,0,0,0,0,0,0,0,0,0,0,0,0,0,0,0,0,0,0,0,0,0,0,0,0,0,0,0,0,0,0,0,0,0,0,0,0,0,0,0,0,0,0,0,0,0,0,0,0,0,0,0,0,0,0,0,0,0,0,0,0,0,0,0,0,0,0,0,0,0,0,0,0,0,0,0,0,0,0,0,0,0,0,0,0,0,0,0,0,0],"id":8,"left_children":[1,3,5,7,9,11,13,15,17,19,21,23,25,27,29,31,33,35,37,39,41,43,45,47,49,51,53,55,57,59,61,63,65,67,69,71,73,75,77,79,81,83,85,87,89,91,93,95,97,99,101,103,105,107,109,111,113,115,117,119,121,123,125,-1,-1,-1,-1,-1,-1,-1,-1,-1,-1,-1,-1,-1,-1,-1,-1,-1,-1,-1,-1,-1,-1,-1,-1,-1,-1,-1,-1,-1,-1,-1,-1,-1,-1,-1,-1,-1,-1,-1,-1,-1,-1,-1,-1,-1,-1,-1,-1,-1,-1,-1,-1,-1,-1,-1,-1,-1,-1,-1,-1,-1,-1,-1,-1],"loss_changes":[6.486365E3,4.543406E3,8.8237646E2,6.169812E2,1.7331216E3,4.499082E2,3.9576022E2,2.2254285E2,2.4564241E2,8.682368E2,1.7787195E2,6.722266E1,2.2201477E2,1.849351E2,1.4842834E1,5.204541E1,3.5261967E1,1.4427011E2,9.135518E1,2.1643207E2,4.5175244E2,6.8060844E1,1.9886597E1,6.934497E1,1.127207E2,1.8505566E2,1.6585979E2,1.1162903E2,9.182505E1,5.541641E0,3.8141937E0,1.1762695E1,3.3599457E1,9.790413E0,1.3888212E1,1.3735254E2,3.712674E1,2.7775629E1,5.131279E1,1.6518127E2,1.1416864E2,2.0680609E2,2.6986816E2,2.932801E1,2.8808937E1,1.9973572E1,1.404895E1,3.1169922E1,2.9363613E1,5.2548523E1,1.2387085E1,1.6291663E2,1.4903137E2,5.5085205E1,1.0874613E1,2.701018E1,3.472586E1,1.4231433E2,3.8995224E1,8.22728E0,5.8914948E0,1.0077515E0,4.7300973E0,0E0,0E0,0E0,0E0,0E0,0E0,0E0,0E0,0E0,0E0,0E0,0E0,0E0,0E0,0E0,0E0,0E0,0E0,0E0,0E0,0E0,0E0,0E0,0E0,0E0,0E0,0E0,0E0,0E0,0E0,0E0,0E0,0E0,0E0,0E0,0E0,0E0,0E0,0E0,0E0,0E0,0E0,0E0,0E0,0E0,0E0,0E0,0E0,0E0,0E0,0E0,0E0,0E0,0E0,0E0,0E0,0E0,0E0,0E0,0E0,0E0,0E0,0E0,0E0],"parents":[2147483647,0,0,1,1,2,2,3,3,4,4,5,5,6,6,7,7,8,8,9,9,10,10,11,11,12,12,13,13,14,14,15,15,16,16,17,17,18,18,19,19,20,20,21,21,22,22,23,23,24,24,25,25,26,26,27,27,28,28,29,29,30,30,31,31,32,32,33,33,34,34,35,35,36,36,37,37,38,38,39,39,40,40,41,41,42,42,43,43,44,44,45,45,46,46,47,47,48,48,49,49,50,50,51,51,52,52,53,53,54,54,55,55,56,56,57,57,58,58,59,59,60,60,61,61,62,62],"right_children":[2,4,6,8,10,12,14,16,18,20,22,24,26,28,30,32,34,36,38,40,42,44,46,48,50,52,54,56,58,60,62,64,66,68,70,72,74,76,78,80,82,84,86,88,90,92,94,96,98,100,102,104,106,108,110,112,114,116,118,120,122,124,126,-1,-1,-1,-1,-1,-1,-1,-1,-1,-1,-1,-1,-1,-1,-1,-1,-1,-1,-1,-1,-1,-1,-1,-1,-1,-1,-1,-1,-1,-1,-1,-1,-1,-1,-1,-1,-1,-1,-1,-1,-1,-1,-1,-1,-1,-1,-1,-1,-1,-1,-1,-1,-1,-1,-1,-1,-1,-1,-1,-1,-1,-1,-1,-1],"split_conditions":[2.6965863E-1,-3.6890915E-1,3.3254334E-1,-6.9533515E-1,8.055457E-1,-4.6145523E-1,1.0563122E0,5.2088016E-1,6.691659E-1,-6.8044014E-2,1.0303091E0,2.6010188E-1,2.3004122E0,-2.370129E-1,1.1216929E0,-4.851616E-1,-1.0399625E0,5.770831E-1,-5.3491825E-1,7.0658404E-1,-5.3932333E-1,5.770831E-1,1.064582E0,1.925216E0,3.8638708E-1,2.3260996E0,2.0690382E0,-1.3399899E-1,4.0071762E-1,1.0303091E0,2.3260996E0,3.8634493E0,-2.4688113E-1,-8.103933E-1,-1.2836776E0,1.1249928E0,-4.7601503E-1,-9.247788E-1,-6.9540113E-1,2.0690382E0,-4.056287E-1,-8.288043E-1,-4.391419E-1,-1.6709626E-1,-5.573599E-1,-7.8672683E-1,1.2609446E0,2.6919444E0,-5.56558E-1,-6.0357565E-1,2.3260996E0,-3.994248E-1,-6.7051876E-1,8.703113E-1,1.6649643E0,-1.5138642E-1,-2.9724783E-1,9.842619E-1,1.0015304E0,-3.323276E-1,2.2684233E0,-2.1525624E0,-4.0046114E-2,-9.3635514E-2,-2.5382174E-2,-7.197013E-2,-2.6901055E-2,5.853435E-2,-8.983477E-3,-6.608545E-2,-1.672264E-2,-3.2618828E-2,6.3679153E-3,-9.294295E-2,-3.8719725E-2,-4.1141804E-2,8.555158E-3,6.124713E-2,-5.8775777E-3,3.2481346E-2,-4.8503406E-2,1.0691865E-1,4.9923714E-2,7.298995E-2,-1.44394785E-2,1.22102596E-1,8.234262E-2,-7.379289E-2,-3.0362655E-3,7.267561E-2,-1.7379648E-4,-5.669368E-2,-1.0158651E-1,-1.2598919E-2,-6.857416E-2,-1.0734061E-1,4.7846334E-3,2.7595779E-2,-6.566449E-2,-7.487538E-2,-3.2893345E-2,-1.139665E-1,-5.6497283E-2,-9.552151E-2,-4.970443E-2,1.22570634E-1,-3.168778E-2,1.58496E-1,-9.4627164E-2,-7.2476126E-2,5.2858677E-2,8.061375E-3,-7.828977E-2,1.0852858E-1,5.5081397E-2,-3.4177743E-2,4.9731627E-2,-2.3606794E-2,-7.741828E-2,-8.432717E-2,-4.1335978E-2,-9.629964E-2,-4.2868473E-2,-5.0787188E-2,-1.1351903E-1,3.0020365E-2,-8.936318E-2],"split_indices":[1,0,8,0,2,9,0,4,4,0,2,4,5,7,4,4,15,9,9,3,9,9,9,1,2,1,18,0,4,2,1,5,22,3,10,8,0,13,6,18,5,1,4,6,15,1,2,5,3,9,1,2,4,2,20,0,4,8,4,9,9,20,17,0,0,0,0,0,0,0,0,0,0,0,0,0,0,0,0,0,0,0,0,0,0,0,0,0,0,0,0,0,0,0,0,0,0,0,0,0,0,0,0,0,0,0,0,0,0,0,0,0,0,0,0,0,0,0,0,0,0,0,0,0,0,0,0],"split_type":[0,0,0,0,0,0,0,0,0,0,0,0,0,0,0,0,0,0,0,0,0,0,0,0,0,0,0,0,0,0,0,0,0,0,0,0,0,0,0,0,0,0,0,0,0,0,0,0,0,0,0,0,0,0,0,0,0,0,0,0,0,0,0,0,0,0,0,0,0,0,0,0,0,0,0,0,0,0,0,0,0,0,0,0,0,0,0,0,0,0,0,0,0,0,0,0,0,0,0,0,0,0,0,0,0,0,0,0,0,0,0,0,0,0,0,0,0,0,0,0,0,0,0,0,0,0,0],"sum_hessian":[3.943463E4,2.6144428E4,1.3290202E4,8.718442E3,1.7425986E4,1.0408641E4,2.881562E3,3.0638894E3,5.6545527E3,1.6113253E4,1.3127327E3,5.136683E3,5.2719575E3,2.343516E3,5.380458E2,2.467252E3,5.966375E2,4.2406523E3,1.4139004E3,6.451899E3,9.661354E3,4.5049512E2,8.6223755E2,2.8659358E3,2.2707473E3,5.094423E3,1.7753442E2,7.967926E2,1.5467236E3,3.4242413E2,1.9562167E2,1.446818E3,1.0204339E3,1.0607544E2,4.905621E2,3.7061301E3,5.345222E2,6.6332416E2,7.5057623E2,4.951776E3,1.5001232E3,1.0911914E3,8.570162E3,2.3362901E2,2.1686609E2,5.559682E2,3.0626935E2,2.7038691E3,1.6206668E2,1.5122711E3,7.584762E2,4.830265E3,2.6415778E2,1.069249E2,7.0609535E1,2.5166612E2,5.4512646E2,8.148908E2,7.318328E2,1.8667433E2,1.557498E2,1.8228249E2,1.3339182E1,1.4202106E3,2.6607397E1,8.106126E2,2.0982132E2,7.67338E1,2.9341635E1,6.50874E1,4.254747E2,2.146399E3,1.5597314E3,3.245075E2,2.100147E2,1.4234912E2,5.2097504E2,6.108516E2,1.397246E2,4.6864834E3,2.6529254E2,5.662205E2,9.3390265E2,4.9161075E2,5.9958075E2,2.36422E3,6.2059424E3,1.19037674E2,1.1459135E2,1.1427527E2,1.0259082E2,1.3565477E2,4.2031345E2,5.5161423E1,2.5110793E2,2.6789287E3,2.4940277E1,4.6939415E1,1.15127266E2,1.1001093E3,4.1216177E2,7.1574255E2,4.273368E1,9.731084E2,3.857157E3,9.994562E1,1.6421214E2,9.81618E1,8.763097E0,6.3576454E1,7.03308E0,2.0887721E2,4.2788914E1,1.8717767E2,3.579488E2,3.6628802E2,4.486028E2,5.542318E2,1.7760101E2,8.201121E1,1.0466312E2,1.2835281E2,2.7396994E1,4.928018E0,1.7735448E2,4.366034E0,8.973147E0],"tree_param":{"num_deleted":"0","num_feature":"23","num_nodes":"127","size_leaf_vector":"1"}},{"base_weights":[-7.6337764E-3,3.4205568E-1,-4.168242E-1,-1.6016796E-1,6.596266E-1,-5.933119E-1,5.9037626E-2,-4.2126867E-1,7.2758354E-2,7.354922E-1,-4.763568E-1,-8.1644994E-1,-3.508828E-1,2.0533375E-1,-7.1044576E-1,-7.0731485E-1,-1.2826952E-1,5.7451475E-1,-2.2874137E-2,5.63453E-1,9.4086397E-1,-5.8446743E-2,-7.2104526E-1,-9.721961E-1,-6.502878E-1,-2.504879E-1,-8.3827895E-1,-4.3065122E-1,3.3075777E-1,-4.179326E-1,-9.280856E-1,-8.215148E-1,-5.324175E-1,-2.5054964E-1,1.05744705E-1,1.046417E0,3.9055485E-1,-8.102991E-2,6.0270965E-1,3.9006853E-1,7.78882E-1,6.8102694E-1,1.0326693E0,4.4315135E-1,-5.3803635E-1,-8.748656E-1,-5.6124026E-1,-1.0345801E0,-5.655503E-1,-4.7809067E-1,-1.00648E0,-8.638524E-1,-1.1891114E-1,-9.3863136E-1,-4.8663932E-1,-7.571774E-1,-9.3698435E-2,6.626855E-1,4.492381E-2,-6.6269505E-1,-1.3456175E-1,-1.0877571E0,-7.828319E-1,-6.519663E-2,-9.533257E-2,-6.399035E-2,4.7746706E-3,5.5723846E-2,-2.9560199E-2,3.3996504E-2,-1.5472533E-2,1.1424323E-1,-3.561058E-2,-1.2669104E-2,4.7794703E-2,3.6024295E-2,-1.6175535E-2,7.261066E-2,-3.1475987E-2,1.0661096E-2,5.338368E-2,9.1097705E-2,2.4847927E-2,1.9269926E-2,7.7805124E-2,1.1813915E-1,9.145787E-2,6.2339332E-2,-3.7612934E-2,-3.011838E-3,-8.562257E-2,-4.5811646E-2,-9.8411515E-2,-3.1266566E-2,-8.1208155E-2,-1.0404157E-1,5.107192E-2,-6.2791646E-2,6.899922E-2,-7.197573E-2,-2.7719429E-2,-1.0506765E-1,-5.9096504E-2,-9.2401706E-2,-3.6892944E-3,-2.4350919E-2,3.0849269E-2,-9.803765E-2,-4.543629E-2,-1.8320559E-2,-6.61015E-2,-8.249282E-2,2.775375E-2,9.734025E-2,-1.657452E-2,1.9914387E-2,8.413133E-2,3.224701E-2,-1.887878E-2,-7.299647E-2,3.4468144E-3,1.3110521E-1,-2.1474887E-2,-3.0645419E-2,-1.0960012E-1,-4.0424626E-2,-8.489288E-2],"categories":[],"categories_nodes":[],"categories_segments":[],"categories_sizes":[],"default_left":[0,0,0,0,0,0,0,0,0,0,0,0,0,0,0,0,0,0,0,0,0,0,0,0,0,0,0,0,0,0,0,0,0,0,0,0,0,0,0,0,0,0,0,0,0,0,0,0,0,0,0,0,0,0,0,0,0,0,0,0,0,0,0,0,0,0,0,0,0,0,0,0,0,0,0,0,0,0,0,0,0,0,0,0,0,0,0,0,0,0,0,0,0,0,0,0,0,0,0,0,0,0,0,0,0,0,0,0,0,0,0,0,0,0,0,0,0,0,0,0,0,0,0,0,0,0,0],"id":9,"left_children":[1,3,5,7,9,11,13,15,17,19,21,23,25,27,29,31,33,35,37,39,41,43,45,47,49,51,53,55,57,59,61,63,65,67,69,71,73,75,77,79,81,83,85,87,89,91,93,95,97,99,101,103,105,107,109,111,113,115,117,119,121,123,125,-1,-1,-1,-1,-1,-1,-1,-1,-1,-1,-1,-1,-1,-1,-1,-1,-1,-1,-1,-1,-1,-1,-1,-1,-1,-1,-1,-1,-1,-1,-1,-1,-1,-1,-1,-1,-1,-1,-1,-1,-1,-1,-1,-1,-1,-1,-1,-1,-1,-1,-1,-1,-1,-1,-1,-1,-1,-1,-1,-1,-1,-1,-1,-1],"loss_changes":[5.5153154E3,3.3148716E3,1.4916853E3,4.8971997E2,1.0976636E3,7.0057715E2,5.411743E2,3.1809546E2,2.0425128E2,4.2118604E2,8.1529144E1,1.739414E2,3.0372662E2,3.2232892E2,4.8504456E1,3.7927307E1,5.3727608E1,5.8745636E1,1.3014645E2,2.4239038E2,1.2904834E2,7.136484E1,1.18741455E1,8.76958E1,1.9988586E2,4.1567975E2,3.6965393E1,7.317996E1,3.2010938E2,2.276152E1,9.342529E0,2.5307068E1,4.752365E1,4.5032852E1,3.938844E1,2.6064484E1,2.229525E1,1.16637276E2,3.4676086E1,1.4673425E2,2.0270764E2,6.727197E1,6.947412E1,2.1656288E1,2.4475224E1,1.1137665E1,1.5303535E1,2.7727783E1,3.6849472E1,1.0680707E2,1.8913208E1,4.523224E1,2.2603606E2,1.6211426E1,1.2446827E1,2.3921997E1,2.5439573E1,1.2910071E2,1.1773382E2,8.303406E0,1.8126364E1,9.961853E-1,5.505417E0,0E0,0E0,0E0,0E0,0E0,0E0,0E0,0E0,0E0,0E0,0E0,0E0,0E0,0E0,0E0,0E0,0E0,0E0,0E0,0E0,0E0,0E0,0E0,0E0,0E0,0E0,0E0,0E0,0E0,0E0,0E0,0E0,0E0,0E0,0E0,0E0,0E0,0E0,0E0,0E0,0E0,0E0,0E0,0E0,0E0,0E0,0E0,0E0,0E0,0E0,0E0,0E0,0E0,0E0,0E0,0E0,0E0,0E0,0E0,0E0,0E0,0E0,0E0,0E0],"parents":[2147483647,0,0,1,1,2,2,3,3,4,4,5,5,6,6,7,7,8,8,9,9,10,10,11,11,12,12,13,13,14,14,15,15,16,16,17,17,18,18,19,19,20,20,21,21,22,22,23,23,24,24,25,25,26,26,27,27,28,28,29,29,30,30,31,31,32,32,33,33,34,34,35,35,36,36,37,37,38,38,39,39,40,40,41,41,42,42,43,43,44,44,45,45,46,46,47,47,48,48,49,49,50,50,51,51,52,52,53,53,54,54,55,55,56,56,57,57,58,58,59,59,60,60,61,61,62,62],"right_children":[2,4,6,8,10,12,14,16,18,20,22,24,26,28,30,32,34,36,38,40,42,44,46,48,50,52,54,56,58,60,62,64,66,68,70,72,74,76,78,80,82,84,86,88,90,92,94,96,98,100,102,104,106,108,110,112,114,116,118,120,122,124,126,-1,-1,-1,-1,-1,-1,-1,-1,-1,-1,-1,-1,-1,-1,-1,-1,-1,-1,-1,-1,-1,-1,-1,-1,-1,-1,-1,-1,-1,-1,-1,-1,-1,-1,-1,-1,-1,-1,-1,-1,-1,-1,-1,-1,-1,-1,-1,-1,-1,-1,-1,-1,-1,-1,-1,-1,-1,-1,-1,-1,-1,-1,-1,-1],"split_conditions":[-1.4326732E-1,-2.912995E-1,3.3254334E-1,-5.57806E-1,9.519876E-1,-3.9746988E-1,8.2242376E-1,-1.630237E-1,-7.1400017E-1,2.5444207E-1,1.3314841E0,2.6010188E-1,9.838478E-1,-4.6831462E-1,8.055457E-1,-9.364103E-1,7.215772E-1,-9.7991484E-1,1.7083371E0,1.420807E-1,-3.109334E-2,-7.748261E-1,8.219005E-1,6.354512E-1,3.11597E-1,-4.5470655E-1,1.5275192E0,1.0805956E0,9.519795E-2,-2.881875E-1,9.0696536E-2,-2.9499543E-1,1.7843533E-2,-1.6284747E0,-8.852946E-1,-5.887043E-1,-8.045552E-1,-1.2807696E0,2.0690382E0,-3.505265E-1,7.7174664E-1,-4.4542804E-1,-8.5045874E-2,-5.8200645E-1,-9.314903E-1,-7.9065734E-1,4.7000286E-1,3.8634493E0,3.7093008E0,6.691659E-1,1.6362308E0,1.7741054E0,5.770831E-1,2.5718772E0,-5.247248E-1,4.5696393E-1,-1.7990743E0,9.2813706E-1,-7.5905845E-2,1.9251469E0,-2.0860574E0,-8.2340753E-1,1.0303091E0,-6.519663E-2,-9.533257E-2,-6.399035E-2,4.7746706E-3,5.5723846E-2,-2.9560199E-2,3.3996504E-2,-1.5472533E-2,1.1424323E-1,-3.561058E-2,-1.2669104E-2,4.7794703E-2,3.6024295E-2,-1.6175535E-2,7.261066E-2,-3.1475987E-2,1.0661096E-2,5.338368E-2,9.1097705E-2,2.4847927E-2,1.9269926E-2,7.7805124E-2,1.1813915E-1,9.145787E-2,6.2339332E-2,-3.7612934E-2,-3.011838E-3,-8.562257E-2,-4.5811646E-2,-9.8411515E-2,-3.1266566E-2,-8.1208155E-2,-1.0404157E-1,5.107192E-2,-6.2791646E-2,6.899922E-2,-7.197573E-2,-2.7719429E-2,-1.0506765E-1,-5.9096504E-2,-9.2401706E-2,-3.6892944E-3,-2.4350919E-2,3.0849269E-2,-9.803765E-2,-4.543629E-2,-1.8320559E-2,-6.61015E-2,-8.249282E-2,2.775375E-2,9.734025E-2,-1.657452E-2,1.9914387E-2,8.413133E-2,3.224701E-2,-1.887878E-2,-7.299647E-2,3.4468144E-3,1.3110521E-1,-2.1474887E-2,-3.0645419E-2,-1.0960012E-1,-4.0424626E-2,-8.489288E-2],"split_indices":[1,0,8,0,0,9,0,4,3,9,0,4,2,0,2,4,4,1,20,3,0,7,9,12,2,2,9,8,4,9,9,9,15,20,15,6,5,20,18,9,5,19,4,1,1,20,17,5,1,4,12,1,9,1,3,4,20,8,7,5,20,12,2,0,0,0,0,0,0,0,0,0,0,0,0,0,0,0,0,0,0,0,0,0,0,0,0,0,0,0,0,0,0,0,0,0,0,0,0,0,0,0,0,0,0,0,0,0,0,0,0,0,0,0,0,0,0,0,0,0,0,0,0,0,0,0,0],"split_type":[0,0,0,0,0,0,0,0,0,0,0,0,0,0,0,0,0,0,0,0,0,0,0,0,0,0,0,0,0,0,0,0,0,0,0,0,0,0,0,0,0,0,0,0,0,0,0,0,0,0,0,0,0,0,0,0,0,0,0,0,0,0,0,0,0,0,0,0,0,0,0,0,0,0,0,0,0,0,0,0,0,0,0,0,0,0,0,0,0,0,0,0,0,0,0,0,0,0,0,0,0,0,0,0,0,0,0,0,0,0,0,0,0,0,0,0,0,0,0,0,0,0,0,0,0,0,0],"sum_hessian":[3.8542496E4,2.0782324E4,1.7760174E4,8.0508203E3,1.2731504E4,1.2955126E4,4.8050474E3,3.7954597E3,4.255361E3,1.1934802E4,7.9670233E2,6.744733E3,6.2103936E3,4.038055E3,7.669921E2,1.9198015E3,1.8756581E3,6.804142E2,3.5749465E3,6.496473E3,5.438328E3,2.9466864E2,5.020337E2,3.4789822E3,3.2657507E3,5.1509116E3,1.0594818E3,6.647726E2,3.3732825E3,3.284576E2,4.385345E2,1.1592001E3,7.606015E2,1.2318864E3,6.437718E2,1.8953139E2,4.9088278E2,3.2716743E3,3.0327222E2,3.601043E3,2.89543E3,1.422014E3,4.0163142E3,1.4406668E2,1.5060196E2,2.5352681E2,2.4850688E2,3.0149163E3,4.6406592E2,2.2030522E3,1.0626985E3,9.088072E2,4.2421045E3,8.2295435E2,2.3652745E2,3.3697635E2,3.277962E2,1.5601838E3,1.8130986E3,1.7551628E2,1.5294133E2,2.0580872E2,2.3272577E2,5.0962067E2,6.4957935E2,6.4162573E2,1.1897577E2,6.4475365E1,1.167411E3,3.388054E2,3.0496637E2,1.7756117E2,1.1970214E1,7.088542E1,4.1999738E2,5.054189E2,2.7662554E3,2.675025E2,3.5769726E1,1.2123939E3,2.388649E3,2.3175374E3,5.778927E2,2.3619928E2,1.1858148E3,1.7736246E3,2.2426897E3,1.182834E2,2.578328E1,5.8428547E1,9.2173416E1,5.3735985E1,1.9979083E2,1.2594571E2,1.2256118E2,3.0038994E3,1.1016927E1,4.425816E2,2.1484314E1,9.98878E2,1.2041742E3,9.5914935E2,1.0354913E2,8.4706256E2,6.1744614E1,3.2849084E3,9.571961E2,7.567005E2,6.625387E1,8.706863E1,1.4945882E2,3.1645816E2,2.0518204E1,1.994061E1,3.078556E2,4.3457373E2,1.1256101E3,8.286492E2,9.8444946E2,1.6002805E2,1.5488241E1,7.2309947E0,1.4571034E2,2.5475132E0,2.032612E2,3.5649662E1,1.9707611E2],"tree_param":{"num_deleted":"0","num_feature":"23","num_nodes":"127","size_leaf_vector":"1"}},{"base_weights":[-7.5460607E-3,2.361958E-1,-5.149249E-1,-3.708152E-1,4.4424075E-1,-6.4483297E-1,-9.7782716E-2,-5.387242E-1,8.292431E-3,5.091145E-1,-4.8182613E-1,-7.494916E-1,-2.398428E-1,4.204172E-2,-8.665609E-1,-7.6629025E-1,-3.701399E-1,-1.0636039E-1,3.5506967E-1,2.0376725E-1,7.002651E-1,-1.3342352E-1,-7.881189E-1,-1.030013E0,-6.588428E-1,-5.322808E-3,-6.5036756E-1,-9.285603E-2,5.324903E-1,3.5625616E-1,-8.9341825E-1,-8.7644744E-1,-6.1302364E-1,-2.721697E-1,-7.936479E-1,1.380564E-1,-2.1898544E-1,-7.092865E-1,4.0131494E-1,2.6094824E-1,-2.2144893E-1,5.386311E-1,9.454286E-1,-6.7818695E-1,8.354597E-2,-9.041976E-1,-5.878575E-1,-1.0373095E0,7.9921186E-1,-5.872296E-1,-1.0344899E0,-1.2907323E-1,7.39555E-1,8.1333673E-1,-6.821998E-1,-1.7858513E-1,4.3786606E-1,-1.5721202E-1,7.1437836E-1,1.4859653E-1,-4.8643154E-1,-7.506133E-1,-1.075226E0,-8.933734E-2,-3.979988E-3,-6.928078E-2,-2.043718E-2,-4.790448E-2,-6.21016E-3,-5.4976653E-2,-1.0110235E-1,-2.3859365E-2,2.5617093E-2,-3.967313E-2,-5.635075E-3,-9.085186E-2,1.1614038E-1,4.7600117E-2,-1.5585067E-2,-1.9695997E-2,3.3481747E-2,-2.4981802E-2,1.363533E-1,7.344197E-2,3.1435125E-2,1.1657152E-1,8.679222E-2,-2.3603322E-2,-9.1114216E-2,2.2736497E-2,-4.893222E-2,-1.0166135E-1,-6.986282E-2,-1.4945622E-2,-6.603812E-2,-1.0503974E-1,-2.0558609E-2,1.5050858E-1,-5.986741E-2,-7.161881E-2,-3.1726148E-2,-5.6310404E-2,-1.0870303E-1,-4.0089976E-2,4.486718E-2,1.4202783E-1,6.668517E-3,1.3704155E-1,-7.862741E-2,-7.4954174E-2,-1.8376304E-2,4.4003114E-2,-2.7474124E-2,6.1322767E-2,-1.5999984E-2,-7.89957E-2,1.2758384E-2,7.999682E-2,-6.1751872E-2,8.100336E-3,-9.305923E-2,-5.9123755E-2,-9.6711524E-2,-1.1152536E-1,-6.870473E-2],"categories":[],"categories_nodes":[],"categories_segments":[],"categories_sizes":[],"default_left":[0,0,0,0,0,0,0,0,0,0,0,0,0,0,0,0,0,0,0,0,0,0,0,0,0,0,0,0,0,0,0,0,0,0,0,0,0,0,0,0,0,0,0,0,0,0,0,0,0,0,0,0,0,0,0,0,0,0,0,0,0,0,0,0,0,0,0,0,0,0,0,0,0,0,0,0,0,0,0,0,0,0,0,0,0,0,0,0,0,0,0,0,0,0,0,0,0,0,0,0,0,0,0,0,0,0,0,0,0,0,0,0,0,0,0,0,0,0,0,0,0,0,0,0,0],"id":10,"left_children":[1,3,5,7,9,11,13,15,17,19,21,23,25,27,29,31,33,35,37,39,41,43,45,47,49,51,53,55,57,59,61,63,65,67,69,71,73,75,77,79,81,83,85,87,89,91,93,95,97,99,101,103,105,107,109,111,113,115,117,-1,119,121,123,-1,-1,-1,-1,-1,-1,-1,-1,-1,-1,-1,-1,-1,-1,-1,-1,-1,-1,-1,-1,-1,-1,-1,-1,-1,-1,-1,-1,-1,-1,-1,-1,-1,-1,-1,-1,-1,-1,-1,-1,-1,-1,-1,-1,-1,-1,-1,-1,-1,-1,-1,-1,-1,-1,-1,-1,-1,-1,-1,-1,-1,-1],"loss_changes":[4.6582427E3,3.2133545E3,6.6230615E2,4.134569E2,1.1386941E3,3.948662E2,3.121764E2,1.7241016E2,7.9344894E1,1.03352E3,1.323356E2,1.8764404E2,1.8440692E2,1.6266386E2,1.4995575E1,3.1789307E1,1.071532E2,4.1316963E1,2.469152E1,1.6587073E2,4.310669E2,6.882793E1,1.4816803E1,2.4945923E1,1.5003784E2,1.12557594E2,3.3001617E1,8.782291E1,6.664458E1,1.0547081E1,1.0554016E1,1.570697E1,2.607193E1,9.1367386E1,2.518991E1,2.113596E1,2.9669182E1,8.885179E0,1.9875519E1,2.0341269E2,3.6712376E1,2.880913E2,7.2849365E1,1.6866577E1,3.4467434E1,8.906036E0,7.6952057E0,1.9380005E1,8.542023E0,1.6359705E2,2.1562134E1,1.6461969E2,7.958728E1,1.4692454E1,2.275772E1,9.892567E1,2.824707E1,2.0192867E1,4.8356476E1,0E0,1.7549446E0,7.9991455E0,2.18898E0,0E0,0E0,0E0,0E0,0E0,0E0,0E0,0E0,0E0,0E0,0E0,0E0,0E0,0E0,0E0,0E0,0E0,0E0,0E0,0E0,0E0,0E0,0E0,0E0,0E0,0E0,0E0,0E0,0E0,0E0,0E0,0E0,0E0,0E0,0E0,0E0,0E0,0E0,0E0,0E0,0E0,0E0,0E0,0E0,0E0,0E0,0E0,0E0,0E0,0E0,0E0,0E0,0E0,0E0,0E0,0E0,0E0,0E0,0E0,0E0,0E0,0E0],"parents":[2147483647,0,0,1,1,2,2,3,3,4,4,5,5,6,6,7,7,8,8,9,9,10,10,11,11,12,12,13,13,14,14,15,15,16,16,17,17,18,18,19,19,20,20,21,21,22,22,23,23,24,24,25,25,26,26,27,27,28,28,29,29,30,30,31,31,32,32,33,33,34,34,35,35,36,36,37,37,38,38,39,39,40,40,41,41,42,42,43,43,44,44,45,45,46,46,47,47,48,48,49,49,50,50,51,51,52,52,53,53,54,54,55,55,56,56,57,57,58,58,60,60,61,61,62,62],"right_children":[2,4,6,8,10,12,14,16,18,20,22,24,26,28,30,32,34,36,38,40,42,44,46,48,50,52,54,56,58,60,62,64,66,68,70,72,74,76,78,80,82,84,86,88,90,92,94,96,98,100,102,104,106,108,110,112,114,116,118,-1,120,122,124,-1,-1,-1,-1,-1,-1,-1,-1,-1,-1,-1,-1,-1,-1,-1,-1,-1,-1,-1,-1,-1,-1,-1,-1,-1,-1,-1,-1,-1,-1,-1,-1,-1,-1,-1,-1,-1,-1,-1,-1,-1,-1,-1,-1,-1,-1,-1,-1,-1,-1,-1,-1,-1,-1,-1,-1,-1,-1,-1,-1,-1,-1],"split_conditions":[2.8130433E-1,-4.6831462E-1,1.8259782E-1,4.4801566E-1,8.055457E-1,1.9179161E-1,7.3050994E-1,-7.3466974E-1,-3.9746988E-1,-1.4839707E-1,1.1985376E0,-6.24139E-1,8.055457E-1,1.2331215E-1,-7.510532E-1,-5.6058276E-1,2.6747942E-1,-9.105576E-1,-4.931786E-1,1.2610042E0,4.216138E-1,-1.08467884E-1,-2.1518822E-1,4.824691E0,7.536054E-1,1.2810253E0,-9.197921E-1,1.2731637E0,-1.2677155E-1,5.7935905E-1,1.0884565E0,3.8634493E0,1.2338918E0,1.0487636E0,-4.4854552E-1,-8.372523E-1,-1.017804E0,-4.9051955E-1,1.3423982E0,-1.2219063E0,2.596033E0,-7.318419E-1,-9.364103E-1,-6.181902E-1,-6.545782E-2,7.7117497E-1,-5.3784364E-1,4.748605E-1,4.10307E-1,-1.4839707E-1,3.8154274E-1,-1.0493793E-1,-3.1200156E-1,5.232425E-1,2.3260996E0,-1.4484777E0,1.1238886E0,-4.0425164E-1,1.179992E0,1.4859653E-1,1.0303091E0,4.648175E-1,2.3260996E0,-8.933734E-2,-3.979988E-3,-6.928078E-2,-2.043718E-2,-4.790448E-2,-6.21016E-3,-5.4976653E-2,-1.0110235E-1,-2.3859365E-2,2.5617093E-2,-3.967313E-2,-5.635075E-3,-9.085186E-2,1.1614038E-1,4.7600117E-2,-1.5585067E-2,-1.9695997E-2,3.3481747E-2,-2.4981802E-2,1.363533E-1,7.344197E-2,3.1435125E-2,1.1657152E-1,8.679222E-2,-2.3603322E-2,-9.1114216E-2,2.2736497E-2,-4.893222E-2,-1.0166135E-1,-6.986282E-2,-1.4945622E-2,-6.603812E-2,-1.0503974E-1,-2.0558609E-2,1.5050858E-1,-5.986741E-2,-7.161881E-2,-3.1726148E-2,-5.6310404E-2,-1.0870303E-1,-4.0089976E-2,4.486718E-2,1.4202783E-1,6.668517E-3,1.3704155E-1,-7.862741E-2,-7.4954174E-2,-1.8376304E-2,4.4003114E-2,-2.7474124E-2,6.1322767E-2,-1.5999984E-2,-7.89957E-2,1.2758384E-2,7.999682E-2,-6.1751872E-2,8.100336E-3,-9.305923E-2,-5.9123755E-2,-9.6711524E-2,-1.1152536E-1,-6.870473E-2],"split_indices":[1,0,8,4,2,9,2,0,9,0,2,2,2,9,4,4,9,15,21,13,9,9,15,5,2,15,4,20,0,0,4,5,8,8,12,10,8,7,13,13,20,1,4,1,15,9,3,4,17,0,4,0,3,0,1,20,10,0,0,0,2,3,1,0,0,0,0,0,0,0,0,0,0,0,0,0,0,0,0,0,0,0,0,0,0,0,0,0,0,0,0,0,0,0,0,0,0,0,0,0,0,0,0,0,0,0,0,0,0,0,0,0,0,0,0,0,0,0,0,0,0,0,0,0,0],"split_type":[0,0,0,0,0,0,0,0,0,0,0,0,0,0,0,0,0,0,0,0,0,0,0,0,0,0,0,0,0,0,0,0,0,0,0,0,0,0,0,0,0,0,0,0,0,0,0,0,0,0,0,0,0,0,0,0,0,0,0,0,0,0,0,0,0,0,0,0,0,0,0,0,0,0,0,0,0,0,0,0,0,0,0,0,0,0,0,0,0,0,0,0,0,0,0,0,0,0,0,0,0,0,0,0,0,0,0,0,0,0,0,0,0,0,0,0,0,0,0,0,0,0,0,0,0],"sum_hessian":[3.7664902E4,2.5442842E4,1.2222061E4,6.494145E3,1.8948695E4,9.3192705E3,2.9027903E3,4.500448E3,1.9936967E3,1.7708605E4,1.2400907E3,7.4048413E3,1.9144291E3,2.456881E3,4.4590924E2,1.9136858E3,2.5867625E3,1.4988383E3,4.948584E2,6.818571E3,1.0890034E4,5.8083575E2,6.592549E2,1.8059115E3,5.5989297E3,1.2190416E3,6.9538745E2,1.9275261E3,5.2935486E2,9.319689E0,4.3658954E2,1.1106854E3,8.0300037E2,2.102121E3,4.8464142E2,4.7272134E2,1.026117E3,2.0008827E1,4.7484958E2,6.0106714E3,8.0789923E2,6.5649927E3,4.325042E3,1.6483784E2,4.159979E2,4.1512085E2,2.4413405E2,1.7991677E3,6.7437143E0,4.704609E3,8.9432074E2,1.046078E3,1.7296365E2,1.4278636E1,6.811088E2,1.6600387E3,2.6748743E2,1.1049686E2,4.18858E2,3.6556084E0,5.6640806E0,2.4739563E2,1.8919392E2,1.0885947E3,2.2090742E1,6.712516E2,1.3174884E2,1.0584646E3,1.0436565E3,2.3005913E2,2.5458229E2,1.12608665E2,3.6011267E2,4.8959348E2,5.3652344E2,1.8547792E1,1.4610345E0,4.1884982E2,5.5999763E1,8.3471124E2,5.1759604E3,7.9452075E2,1.3378489E1,3.5039187E3,3.061074E3,1.1220219E3,3.20302E3,5.757415E1,1.07263695E2,3.330009E2,8.2997025E1,2.658145E2,1.4930632E2,3.5088287E1,2.0904576E2,1.7710359E3,2.8131805E1,4.4300413E0,2.313673E0,3.1826616E3,1.5219473E3,9.085944E1,8.034613E2,7.11586E2,3.34492E2,8.54279E1,8.753574E1,1.0696697E1,3.581938E0,5.995959E2,8.151295E1,2.2283875E2,1.4372E3,2.0680363E2,6.0683804E1,3.374661E1,7.675025E1,3.9394205E2,2.4915966E1,2.8459191E0,2.8181615E0,1.4464645E2,1.0274917E2,1.6981062E2,1.9383303E1],"tree_param":{"num_deleted":"0","num_feature":"23","num_nodes":"125","size_leaf_vector":"1"}},{"base_weights":[-7.4423393E-3,2.0740011E-1,-5.036365E-1,-3.300436E-1,4.0614513E-1,-6.922514E-1,-2.3408125E-1,-4.8933965E-1,1.794923E-2,4.5940796E-1,-6.167267E-1,-8.760302E-1,-5.602159E-1,-7.5320415E-2,-7.4725586E-1,-7.426186E-1,-3.190244E-1,-1.4749865E-1,2.16309E-1,1.8598774E-1,6.205283E-1,-2.6017192E-1,-7.5954485E-1,-9.258519E-1,-5.435661E-1,-4.915398E-1,-9.772468E-1,-7.80246E-1,9.7522035E-2,-6.097256E-1,-1.0305812E0,-8.7015474E-1,-6.0949105E-1,-2.1463734E-1,-6.488096E-1,-8.362105E-2,-4.6223277E-1,-2.1784912E-1,3.0186188E-1,7.2206616E-1,1.3770272E-1,9.898419E-1,5.087183E-1,-8.745933E-1,-6.043242E-2,-8.579705E-1,-4.9241796E-1,-1.0147969E0,-7.7784824E-1,-1.7442133E-1,-6.9873255E-1,-6.9555646E-1,-1.608871E-1,-5.566156E-1,-1.0203936E0,-9.193454E-1,-4.6381217E-1,-1.347274E-2,6.291726E-1,-7.133136E-1,-1.8258038E-1,-1.1093827E-1,-1.0430192E0,-8.8645704E-2,-7.1338634E-3,-4.984591E-2,-8.61339E-2,-4.2966735E-2,-2.9420687E-4,-2.7066587E-2,-8.132766E-2,-2.549756E-2,8.696265E-3,-4.846701E-2,1.4070685E-1,-1.0455036E-1,-1.4415654E-2,3.847134E-2,-2.8921176E-2,2.990115E-2,8.661678E-2,7.5004487E-3,6.358298E-2,1.1063655E-1,6.859845E-2,6.797773E-2,2.4773005E-2,3.3419088E-2,-9.0885155E-2,1.5005402E-2,-5.522445E-2,-3.7974972E-2,-9.336073E-2,-2.89176E-2,-7.653011E-2,-1.0404815E-1,-5.1688027E-2,-5.4948825E-2,-1.0530364E-1,-5.7409E-3,-9.680822E-2,-5.929131E-2,-1.05543606E-1,-7.709231E-2,4.713411E-2,2.6032731E-2,-3.5954606E-2,6.2024124E-2,-7.459005E-2,-1.0579171E-1,-6.2211987E-2,-9.803881E-2,-4.2261887E-2,8.503759E-2,-5.433757E-2,-8.878939E-3,7.307287E-2,-8.883172E-2,6.675382E-2,-7.879378E-2,-3.442066E-2,4.2176437E-2,-3.735258E-2,-8.582053E-2,8.9126624E-2,-1.0571674E-1,-6.232655E-2],"categories":[],"categories_nodes":[],"categories_segments":[],"categories_sizes":[],"default_left":[0,0,0,0,0,0,0,0,0,0,0,0,0,0,0,0,0,0,0,0,0,0,0,0,0,0,0,0,0,0,0,0,0,0,0,0,0,0,0,0,0,0,0,0,0,0,0,0,0,0,0,0,0,0,0,0,0,0,0,0,0,0,0,0,0,0,0,0,0,0,0,0,0,0,0,0,0,0,0,0,0,0,0,0,0,0,0,0,0,0,0,0,0,0,0,0,0,0,0,0,0,0,0,0,0,0,0,0,0,0,0,0,0,0,0,0,0,0,0,0,0,0,0,0,0,0,0],"id":11,"left_children":[1,3,5,7,9,11,13,15,17,19,21,23,25,27,29,31,33,35,37,39,41,43,45,47,49,51,53,55,57,59,61,63,65,67,69,71,73,75,77,79,81,83,85,87,89,91,93,95,97,99,101,103,105,107,109,111,113,115,117,119,121,123,125,-1,-1,-1,-1,-1,-1,-1,-1,-1,-1,-1,-1,-1,-1,-1,-1,-1,-1,-1,-1,-1,-1,-1,-1,-1,-1,-1,-1,-1,-1,-1,-1,-1,-1,-1,-1,-1,-1,-1,-1,-1,-1,-1,-1,-1,-1,-1,-1,-1,-1,-1,-1,-1,-1,-1,-1,-1,-1,-1,-1,-1,-1,-1,-1],"loss_changes":[3.9266868E3,2.745776E3,5.656946E2,3.847171E2,1.0226677E3,1.5838403E2,3.733516E2,2.051283E2,7.1582436E1,7.8569556E2,4.712143E1,4.480835E1,1.0871973E2,4.266991E2,4.15636E1,3.1956665E1,9.791553E1,2.387189E1,3.6908134E1,1.7113531E2,4.6294092E2,3.274861E1,1.7008057E1,3.0510498E1,2.04376E1,2.2086536E2,9.197998E0,2.9926422E1,1.6599779E2,3.2232086E1,3.9151611E0,1.2632263E1,2.584256E1,9.8551796E1,4.2339508E1,2.8956665E1,9.088631E0,9.843589E0,4.0710037E1,3.3049774E1,1.8952696E2,9.155176E1,3.8453857E2,3.016037E0,2.1074636E1,1.7120056E1,9.808838E0,1.8412964E1,5.5777344E1,9.9330845E0,8.900551E0,1.7849634E2,1.0479523E2,1.2104488E1,6.6174927E0,1.4079407E1,2.2690575E1,1.3055281E2,2.8878784E1,1.59331665E1,1.6785978E1,5.1246758E0,1.4052734E0,0E0,0E0,0E0,0E0,0E0,0E0,0E0,0E0,0E0,0E0,0E0,0E0,0E0,0E0,0E0,0E0,0E0,0E0,0E0,0E0,0E0,0E0,0E0,0E0,0E0,0E0,0E0,0E0,0E0,0E0,0E0,0E0,0E0,0E0,0E0,0E0,0E0,0E0,0E0,0E0,0E0,0E0,0E0,0E0,0E0,0E0,0E0,0E0,0E0,0E0,0E0,0E0,0E0,0E0,0E0,0E0,0E0,0E0,0E0,0E0,0E0,0E0,0E0,0E0],"parents":[2147483647,0,0,1,1,2,2,3,3,4,4,5,5,6,6,7,7,8,8,9,9,10,10,11,11,12,12,13,13,14,14,15,15,16,16,17,17,18,18,19,19,20,20,21,21,22,22,23,23,24,24,25,25,26,26,27,27,28,28,29,29,30,30,31,31,32,32,33,33,34,34,35,35,36,36,37,37,38,38,39,39,40,40,41,41,42,42,43,43,44,44,45,45,46,46,47,47,48,48,49,49,50,50,51,51,52,52,53,53,54,54,55,55,56,56,57,57,58,58,59,59,60,60,61,61,62,62],"right_children":[2,4,6,8,10,12,14,16,18,20,22,24,26,28,30,32,34,36,38,40,42,44,46,48,50,52,54,56,58,60,62,64,66,68,70,72,74,76,78,80,82,84,86,88,90,92,94,96,98,100,102,104,106,108,110,112,114,116,118,120,122,124,126,-1,-1,-1,-1,-1,-1,-1,-1,-1,-1,-1,-1,-1,-1,-1,-1,-1,-1,-1,-1,-1,-1,-1,-1,-1,-1,-1,-1,-1,-1,-1,-1,-1,-1,-1,-1,-1,-1,-1,-1,-1,-1,-1,-1,-1,-1,-1,-1,-1,-1,-1,-1,-1,-1,-1,-1,-1,-1,-1,-1,-1,-1,-1,-1],"split_conditions":[3.4284794E-1,-4.4691613E-1,-3.1993112E-1,4.4801566E-1,9.4458544E-1,-5.996155E-1,8.359875E-1,-7.3466974E-1,-5.569883E-1,-1.4839707E-1,1.1985376E0,1.0971927E-1,7.3050994E-1,-4.0425164E-1,1.0334885E0,-9.132552E-1,9.0696536E-2,1.0650265E0,-1.0645833E0,-1.6284747E0,-5.005015E-1,-4.692062E-1,1.5935514E0,4.748605E-1,5.837804E-1,4.0071762E-1,3.8154274E-1,-5.959108E-1,7.7117497E-1,1.9027545E0,-9.5870465E-1,2.9488132E0,-2.9499543E-1,1.0487636E0,3.0502364E-1,-1.017804E0,1.2555965E0,-5.209559E-1,1.3755879E0,-7.320904E-1,1.47557E0,5.2549845E-1,-5.8200645E-1,-1.334584E0,-1.8171622E-1,-1.0357348E0,6.715823E-1,6.354512E-1,1.0017495E-1,1.2853185E0,1.1594868E-1,1.7129585E0,-5.3398244E-2,-3.9472535E-1,2.7588056E-2,1.8312634E0,-1.884374E0,1.79942E0,-9.1931903E-1,2.5718772E0,-5.6660485E-1,1.7093912E0,2.8758836E0,-8.8645704E-2,-7.1338634E-3,-4.984591E-2,-8.61339E-2,-4.2966735E-2,-2.9420687E-4,-2.7066587E-2,-8.132766E-2,-2.549756E-2,8.696265E-3,-4.846701E-2,1.4070685E-1,-1.0455036E-1,-1.4415654E-2,3.847134E-2,-2.8921176E-2,2.990115E-2,8.661678E-2,7.5004487E-3,6.358298E-2,1.1063655E-1,6.859845E-2,6.797773E-2,2.4773005E-2,3.3419088E-2,-9.0885155E-2,1.5005402E-2,-5.522445E-2,-3.7974972E-2,-9.336073E-2,-2.89176E-2,-7.653011E-2,-1.0404815E-1,-5.1688027E-2,-5.4948825E-2,-1.0530364E-1,-5.7409E-3,-9.680822E-2,-5.929131E-2,-1.05543606E-1,-7.709231E-2,4.713411E-2,2.6032731E-2,-3.5954606E-2,6.2024124E-2,-7.459005E-2,-1.0579171E-1,-6.2211987E-2,-9.803881E-2,-4.2261887E-2,8.503759E-2,-5.433757E-2,-8.878939E-3,7.307287E-2,-8.883172E-2,6.675382E-2,-7.879378E-2,-3.442066E-2,4.2176437E-2,-3.735258E-2,-8.582053E-2,8.9126624E-2,-1.0571674E-1,-6.232655E-2],"split_indices":[1,0,6,4,2,9,2,0,9,0,2,8,2,0,4,0,9,13,10,20,4,6,9,4,1,4,4,0,9,9,17,5,9,8,6,8,7,21,13,19,20,5,1,1,15,1,17,12,2,4,2,1,7,15,17,5,20,20,2,1,3,12,9,0,0,0,0,0,0,0,0,0,0,0,0,0,0,0,0,0,0,0,0,0,0,0,0,0,0,0,0,0,0,0,0,0,0,0,0,0,0,0,0,0,0,0,0,0,0,0,0,0,0,0,0,0,0,0,0,0,0,0,0,0,0,0,0],"split_type":[0,0,0,0,0,0,0,0,0,0,0,0,0,0,0,0,0,0,0,0,0,0,0,0,0,0,0,0,0,0,0,0,0,0,0,0,0,0,0,0,0,0,0,0,0,0,0,0,0,0,0,0,0,0,0,0,0,0,0,0,0,0,0,0,0,0,0,0,0,0,0,0,0,0,0,0,0,0,0,0,0,0,0,0,0,0,0,0,0,0,0,0,0,0,0,0,0,0,0,0,0,0,0,0,0,0,0,0,0,0,0,0,0,0,0,0,0,0,0,0,0,0,0,0,0,0,0],"sum_hessian":[3.68325E4,2.5703824E4,1.1128676E4,6.9389487E3,1.8764875E4,6.5464106E3,4.5822646E3,4.7597397E3,2.1792087E3,1.7836639E4,9.282358E2,2.7345645E3,3.8118464E3,3.500471E3,1.081794E3,1.9124055E3,2.8473345E3,1.1883153E3,9.908934E2,6.614325E3,1.1222314E4,2.662778E2,6.6195795E2,2.3766282E3,3.5793628E2,3.2747444E3,5.37102E2,6.885903E2,2.8118806E3,7.3039935E2,3.513946E2,9.738864E2,9.3851904E2,2.16401E3,6.833244E2,9.888804E2,1.9943488E2,1.6286263E2,8.2803076E2,5.453781E2,6.0689473E3,2.6061682E3,8.6161455E3,6.449749E1,2.017803E2,4.821084E2,1.7984958E2,1.480839E3,8.957891E2,1.0655751E2,2.5137878E2,2.0245001E3,1.2502443E3,5.1261566E1,4.8584042E2,4.7700226E2,2.1158801E2,2.3270317E3,4.8484888E2,5.873015E2,1.4309782E2,4.821475E0,3.4657312E2,9.543013E2,1.9585133E1,6.534239E2,2.8509512E2,1.0730387E3,1.0909714E3,2.0791963E2,4.7540475E2,4.9307874E2,4.9580164E2,1.9780138E2,1.6334994E0,1.2237187E1,1.5062543E2,7.2653986E2,1.0149088E2,1.3934958E2,4.0602856E2,5.391483E3,6.774643E2,1.8818671E3,7.243012E2,5.2038154E3,3.4123303E3,1.5362604E0,6.296123E1,1.417912E2,5.998911E1,6.666068E1,4.154477E2,1.0425825E2,7.559133E1,1.4071621E3,7.367688E1,4.9118484E2,4.0460428E2,9.380049E1,1.2757017E1,1.9591956E2,5.5459225E1,1.9019949E3,1.2250522E2,4.0058267E2,8.496616E2,6.78706E0,4.4474506E1,4.4249435E2,4.3346085E1,4.2393167E2,5.3070595E1,1.1525635E1,2.0006238E2,2.113969E3,2.1306279E2,1.1409508E1,4.7343936E2,4.875886E2,9.971292E1,3.4066883E1,1.09030945E2,2.8443465E0,1.9771285E0,3.3380334E2,1.2769785E1],"tree_param":{"num_deleted":"0","num_feature":"23","num_nodes":"127","size_leaf_vector":"1"}},{"base_weights":[-7.345069E-3,2.722074E-1,-3.3561268E-1,-9.972491E-2,5.440297E-1,-4.8164907E-1,9.78828E-2,-3.7225467E-1,4.3646142E-2,6.160204E-1,-3.413414E-1,-7.4317354E-1,-2.771192E-1,2.2325617E-1,-6.148639E-1,-6.3234466E-1,-1.15855716E-1,5.3842175E-1,-3.918974E-2,4.6254072E-1,8.166896E-1,-8.977659E-3,-6.133129E-1,-9.348272E-1,-6.1433315E-1,-8.101681E-1,-2.0222726E-1,4.3212745E-1,-2.1219928E-2,-2.1819311E-1,-7.647767E-1,-7.729374E-1,-4.6669888E-1,5.273982E-1,-1.5670075E-1,8.4227306E-1,1.5337256E-1,2.514359E-2,-4.4428617E-1,2.23473E-1,6.000867E-1,6.044344E-1,9.011303E-1,3.8721916E-1,-4.5942277E-1,9.820536E-2,-7.0359707E-1,-1.0047488E0,-5.352774E-1,-5.032225E-1,-9.7677344E-1,-8.60535E-1,-1.2012891E-1,-7.4336E-2,-6.5885377E-1,-1.4462611E-1,6.583132E-1,-3.3068332E-1,1.1267936E-1,-7.175059E-1,1.4711254E-3,-1.0287304E0,-6.339784E-1,-5.840635E-2,-9.2791945E-2,-5.5655397E-2,4.435913E-3,-3.7414115E-2,8.264624E-2,-3.357875E-2,-1.5147909E-3,8.862495E-2,-2.4373183E-2,-4.335469E-2,2.6845038E-2,-1.53975235E-2,2.0218452E-2,-6.288063E-2,-1.6850047E-2,-4.1387048E-2,3.1628873E-2,6.917233E-2,1.8723434E-2,4.7168206E-2,9.235709E-2,1.0432523E-1,7.957578E-2,4.7504816E-2,-7.125359E-2,-1.5071439E-2,-8.38376E-2,3.595291E-2,-8.078228E-2,-4.9022023E-2,-9.1869995E-2,-1.0204919E-1,-3.5879295E-2,1.3102223E-1,-6.0514856E-2,-7.099917E-2,-2.7612789E-2,-1.0348158E-1,-5.554647E-2,-8.853521E-2,8.4984675E-2,7.834688E-2,-7.272414E-2,8.46643E-2,-1.2535671E-2,-1.9702237E-2,-7.824171E-2,-4.569296E-2,2.0667782E-2,1.0307808E-1,5.1963586E-2,-2.237027E-2,-7.544011E-2,1.6867924E-2,-9.25033E-2,-8.265119E-2,2.2356866E-2,9.699578E-2,-8.957951E-3,-1.1098744E-1,-7.9342745E-2,-3.7752893E-2,-7.90489E-2],"categories":[],"categories_nodes":[],"categories_segments":[],"categories_sizes":[],"default_left":[0,0,0,0,0,0,0,0,0,0,0,0,0,0,0,0,0,0,0,0,0,0,0,0,0,0,0,0,0,0,0,0,0,0,0,0,